solver_type L2R_L2LOSS_SVC_DUAL
nr_class 6
label 1 2 3 4 5 6
nr_feature 1792
bias -1
w
0 0 0 0 0 0 
0 0 0 0 0 0 
0 0 0 0 0 0 
0 0 0 0 0 0 
-0.01933039649701809 -0.04918080182305777 0.02921228006004091 0.003790739233412239 -0.0205077745107256 0.02751642210945895 
-0.04042103346603548 0.02911536917886664 0.02763635312849794 -0.004509709383651003 0.00948170138477706 -0.0303931508134836 
-0.01404087540200804 -0.01604719273322248 0.01221025730106643 0.02389333414559705 -0.01037202942970512 -0.001029605222233494 
0 0 0 0 0 0 
0 0 0 0 0 0 
0 0 0 0 0 0 
0 0 0 0 0 0 
0 0 0 0 0 0 
-0.04502172206459067 0.0004819526406337273 0.06433342958514454 -0.03024757682847644 -0.05185521299031456 0.0128410032646262 
-0.02408841083217586 -0.003770742373288943 0.00189640660973501 0.01715055667145014 -0.011833981906051 0.02256856280858903 
0.0003305202662247547 -0.01627406475448665 0.0007364816219008664 0.02510621998411284 -0.0007075992827571013 -0.0149025599692053 
0 0 0 0 0 0 
0 0 0 0 0 0 
0 0 0 0 0 0 
0 0 0 0 0 0 
0 0 0 0 0 0 
-0.03988409410924993 0.01045961317368742 -0.02001703200442552 0.005266532793705974 -0.03543103771616336 0.02016619658892651 
-0.01213000079737006 -0.01744742954025196 0.01933457573173346 0.02479524838152328 -0.0108598046012289 0.01110814624478553 
-0.01943202678796375 0.01564267561558208 -0.001288537004816166 0.004850503579510484 0.001239598933433534 -0.00654298720891552 
0 0 0 0 0 0 
0 0 0 0 0 0 
0 0 0 0 0 0 
0 0 0 0 0 0 
0 0 0 0 0 0 
0.03439174509136288 -0.06167517737653024 0.00296694531299861 0.03456886710582607 -0.03605108652539572 0.0160839912847416 
-0.03399397225231148 0.03921023051651361 -0.009115820651050354 0.01380759747067188 0.0003124539028856289 -0.01079160647390351 
0.01232336974871442 0.01110955906564526 -0.00268121431463818 -0.005538597733038966 0.00478430753938035 -0.0243489886476699 
0 0 0 0 0 0 
0 0 0 0 0 0 
0 0 0 0 0 0 
0 0 0 0 0 0 
0 0 0 0 0 0 
0.0371977037311426 -0.04786386104472393 -0.01766302042184141 -0.04961746861559371 0.007364468719002287 0.0280194972270105 
-0.04715790055316869 0.05336528765820459 0.007964434192647089 0.04098839648284248 -0.01007138443964643 -0.02686451298615206 
0.01520575948632054 0.0194186705446185 -0.01210899195022905 0.005733757037391735 0.006248893926137934 -0.02855828080297268 
0 0 0 0 0 0 
0 0 0 0 0 0 
0 0 0 0 0 0 
0 0 0 0 0 0 
0 0 0 0 0 0 
0.02226557163333391 0.01290718222396891 -0.027623698461068 -0.03012739242448275 0.0179539127966386 -0.02696044050977097 
0.003198945652169813 -0.01955620768990756 0.01163012301957245 0.02720044808690528 -0.03531077168760428 -0.002063785108682316 
0.002826618601914863 0.006022641477328116 -0.005768791259373631 0.01036390078751537 0.0002144624848011986 -0.01613620143324743 
0 0 0 0 0 0 
0 0 0 0 0 0 
0 0 0 0 0 0 
0 0 0 0 0 0 
0 0 0 0 0 0 
-0.05839198196092391 0.00458688408873611 0.009073081995087016 0.03308571304286759 -0.05507270380130318 0.01994898814000124 
-0.01277638896481812 -0.02088579345900962 0.00126526631634239 -0.0007269529480697905 0.02803800446326799 -0.001499174006759211 
0.001023540784701642 0.01062213521546363 -0.007650043535550368 -0.004240617388358742 0.004191112499300669 -0.002914501024114876 
0 0 0 0 0 0 
0 0 0 0 0 0 
0 0 0 0 0 0 
0 0 0 0 0 0 
0 0 0 0 0 0 
-0.06023553680320284 0.0006641202263935487 0.02189916096232941 0.01511009900452568 -0.0562581551685537 0.005240234481727278 
-0.03368248874984033 -0.01879416982541238 0.03394132495105855 -0.01654860757623996 0.01204544342463749 0.01753215804086721 
0.003440636513200509 -0.003694652679762714 -0.006625303214101246 0.009103131562676076 0.003347509765755184 -0.00707786531329365 
0 0 0 0 0 0 
0 0 0 0 0 0 
0 0 0 0 0 0 
0 0 0 0 0 0 
0 0 0 0 0 0 
0.0005801418405841034 0.01681578183218895 0.03062804469650339 -0.0626167846101245 -0.007122856871851059 -0.03463502951266242 
-0.08912601859901886 0.01241188948156923 0.03379356593095036 0.01238411595509901 -0.0203226154218226 0.03659043386251837 
-0.002836798462973183 -0.001019709701849204 -0.01041900437122525 0.01761706785821884 0.008412837578137444 -0.02124219478447157 
0 0 0 0 0 0 
0 0 0 0 0 0 
0 0 0 0 0 0 
0 0 0 0 0 0 
0 0 0 0 0 0 
0.005442495142090215 -0.02378594202400357 0.00855075137418769 -0.02794136067506095 -0.0009744364577217561 7.636300263881377e-06 
-0.06216765590829414 -0.01470875875958698 0.04005448714787106 0.01211257409141005 0.002772902373978107 -0.006035429993284779 
-0.004608007349253652 -0.006096511252154766 -0.004566201247212895 0.01434866958458072 0.005057563833025823 -0.0103833144281464 
0 0 0 0 0 0 
0 0 0 0 0 0 
0 0 0 0 0 0 
0 0 0 0 0 0 
0 0 0 0 0 0 
-0.02474582075950285 -0.01714859764503199 0.05547154560690706 -0.009354506626354238 -0.02865075340063204 0.03270171707830754 
-0.0267836641748943 0.02543853974445418 0.0273787141387724 -0.01353718115969959 -0.005463220590916734 -0.03774993351883694 
-0.01860704745798598 0.006913906526236606 -5.222101714109402e-07 0.01608383526115201 -0.006096955257914713 -0.008468153636864489 
0 0 0 0 0 0 
0 0 0 0 0 0 
0 0 0 0 0 0 
0 0 0 0 0 0 
0 0 0 0 0 0 
-0.03711474578698493 0.002606406802717642 0.0516102185369856 -0.02029303751662124 -0.06763477256581729 0.009966292069253384 
-0.0716699972360101 -0.0001004337454449633 0.01160117359873211 -0.001626127127291477 0.01325993038947265 0.06531487217650163 
-0.004658910827488775 0.0007662156114808491 -0.006828532806498751 0.02423848363057511 0.0009724493332246243 -0.01019695830412787 
0 0 0 0 0 0 
0 0 0 0 0 0 
0 0 0 0 0 0 
0 0 0 0 0 0 
0 0 0 0 0 0 
-0.05671660075090131 0.002942153863712739 0.003757826098732964 0.01147440003922704 -0.02157800321308146 0.05281937851698504 
-0.06723529001063124 -0.02529724718488439 -0.01359397848678095 -0.01427763793861025 0.005455484846219612 0.02156081978715596 
-0.006672369980060882 0.01190505341987922 -0.003161068436863874 0.00824713174157629 0.002462922654398665 -0.006991358784678849 
0 0 0 0 0 0 
0 0 0 0 0 0 
0 0 0 0 0 0 
0 0 0 0 0 0 
0 0 0 0 0 0 
0.0178601691317499 -0.05095676669334107 -0.04468890891503759 -0.01814951894071729 0.1114704412133034 -0.02545840041116504 
0.001227181180879352 -0.005196222355746058 -0.06406770635300955 -0.007608999672614236 -8.191958405760293e-05 0.03234064157335931 
0.01180969628103132 0.01762038933470022 0.0001725217853088395 -0.002454409174445555 -0.01035822803034854 -0.02276168247084935 
0 0 0 0 0 0 
0 0 0 0 0 0 
0 0 0 0 0 0 
0 0 0 0 0 0 
0 0 0 0 0 0 
0.0133688761698394 -0.02977514424359784 -0.05038790267072769 -0.03138767206089193 0.08130427140180994 0.01039539975090352 
0.0358031739855338 -0.01006236361986969 -0.05205295386262589 -0.002842595275750864 0.02947081207460439 0.003141570665086703 
0.00843950557934047 0.01773861271092419 0.002409145017767479 0.007338992986049545 -0.006769077024873157 -0.02825542245939887 
0 0 0 0 0 0 
0 0 0 0 0 0 
0 0 0 0 0 0 
0 0 0 0 0 0 
0 0 0 0 0 0 
0.03254108779481862 -0.01868246511460852 -0.05516365167052068 -0.01644734316120185 0.05544698370673258 0.01339152792682948 
0.03916354964951813 0.009772609858686864 -0.06447757067549785 -0.04213633322178426 0.04925584058062442 0.01560037825821195 
0.008584227303093201 0.001348389446389735 -0.002551945491321685 0.01915065303214164 -0.004448662343303674 -0.02313948012620556 
0 0 0 0 0 0 
0 0 0 0 0 0 
0 0 0 0 0 0 
0 0 0 0 0 0 
0 0 0 0 0 0 
-0.01653954853204618 -0.0227472380566295 -0.01074826368834619 -0.02283649715741624 -0.06200644728492353 0.1015343525119577 
0.003640230897529021 -0.02643395437109855 -0.03984420877544961 -0.01046706079249488 0.08169475771696354 -0.04641733898805121 
0.004257977989213961 -0.005881596981768297 -0.0002715048437858274 0.02008082166932384 -0.007496515932087835 -0.0102883063648756 
0 0 0 0 0 0 
0 0 0 0 0 0 
0 0 0 0 0 0 
0 0 0 0 0 0 
0 0 0 0 0 0 
-0.06976514988728251 -0.0155714063792321 0.02819918870376201 -0.03253362842961306 -0.08662624138216758 0.1097401332721781 
-0.04588239209666895 0.002678523118305803 -0.001415687586506744 0.01795444920871779 0.03008549628608984 -0.01531898596390997 
-0.004436274218101677 7.077565238459087e-05 -0.0004440755770912065 0.01689511760401274 -0.005416758105896663 -0.009235610544184869 
0 0 0 0 0 0 
0 0 0 0 0 0 
0 0 0 0 0 0 
0 0 0 0 0 0 
0 0 0 0 0 0 
-0.09565991220252776 -0.02462423726057263 0.05004805625966376 -0.04863608582122924 -0.03618368756844786 0.08712069071888749 
-0.1169057658666728 0.06029644790197049 0.02121857161002273 -0.02462009515575401 -0.003033660943160592 0.02987841665588969 
0.003559407257052373 -0.006337615681998083 0.01037055634588635 0.006281634077676831 -0.004813826391558624 -0.01699843578494579 
0 0 0 0 0 0 
0 0 0 0 0 0 
0 0 0 0 0 0 
0 0 0 0 0 0 
0 0 0 0 0 0 
-0.005034887607785312 -0.00712238900372316 0.03540069582322758 -0.05544211875878922 -0.01593069537686861 0.01025207212368514 
-0.04929801599330973 0.007715438812773038 0.008157028924946713 0.04566297311318013 0.01138203202097207 -0.023426729687341 
-0.004123853716255282 0.007131127994818637 -0.0001172780523170973 0.008291467667867302 0.000317410754432847 -0.01359932937473745 
0 0 0 0 0 0 
0 0 0 0 0 0 
0 0 0 0 0 0 
0 0 0 0 0 0 
0 0 0 0 0 0 
-0.03394403750279171 0.01888090681471837 0.01070508782238541 0.0221754591270426 -0.007034263189390156 0.002283945055476882 
-0.01691568823334297 -0.01038787942520249 0.01919428809125432 -0.01949604086071642 -0.006177782806623343 -0.006865961576232543 
0.00871187559217431 0.006237206144192661 -0.002341721870745911 0.01172491156110632 0.0008642252728713322 -0.02270367048728893 
0 0 0 0 0 0 
0 0 0 0 0 0 
0 0 0 0 0 0 
0 0 0 0 0 0 
0 0 0 0 0 0 
-0.04231170218020788 0.05181520970590413 0.06642706501532472 -0.02048617454885482 -0.08196742701076293 -0.001426414966517352 
-0.006665771338206582 0.008917563058918564 -0.02258144251135632 -0.01966112338073208 0.0113084264339032 -0.01317858881631101 
-0.001522690703443338 0.004976206082675886 0.001584814012059499 0.00153728166057457 -0.003425392950263087 -0.007090357609751918 
0 0 0 0 0 0 
0 0 0 0 0 0 
0 0 0 0 0 0 
0 0 0 0 0 0 
0 0 0 0 0 0 
0.02220094231872694 0.009847768989973272 -0.01241188595588108 -0.02851983221869916 -0.02710742884334653 -0.01478496753278835 
-0.06488909021543943 -0.001528142522613651 -0.01678767629414776 -0.01524220421015694 0.04424896137762058 0.01992553618654028 
-0.00932537155008698 0.01512494591519726 0.0008104276716758362 0.01078917103490041 -0.007389500244145635 -0.004889222509215274 
0 0 0 0 0 0 
0 0 0 0 0 0 
0 0 0 0 0 0 
0 0 0 0 0 0 
0 0 0 0 0 0 
0.07391622704421943 -0.06803601978070301 -0.05473245786462128 0.0335800196500381 -0.010001145546564 0.02160643654849916 
-0.06366915995647063 -0.001244677513856113 -0.0152968944978403 -0.008741631655777784 0.07078748848645545 -0.02417877753500318 
-0.002501970642422644 0.01159766522293246 -0.0003790155879596193 0.005640868494207943 -0.004025157566214083 -0.01546651421176364 
0 0 0 0 0 0 
0 0 0 0 0 0 
0 0 0 0 0 0 
0 0 0 0 0 0 
0 0 0 0 0 0 
0.06702783881393125 -0.06121431597095907 -0.04590198464059875 0.05540600780915508 0.01773676095350367 -0.007855720173035518 
-0.04917480883435667 -0.03981765093813725 -0.01551951314897888 0.005289003703503724 0.01290554331794776 0.02757094083967225 
-0.006269753894848089 0.01527207981258731 -0.003243027162804679 -4.201178744584264e-05 0.0005655432811810006 -0.01473862949214747 
0 0 0 0 0 0 
0 0 0 0 0 0 
0 0 0 0 0 0 
0 0 0 0 0 0 
0 0 0 0 0 0 
0.05360783811912807 -0.06026378233473909 -0.02906932676975261 0.0523555416795906 0.04252923836167306 -0.0435382227135267 
-0.05154618754477327 -0.02865396379259587 0.01080856527779656 -0.0196200213395899 -0.01518900319455976 0.06608503626250134 
-0.00783172064799305 0.005082522737328315 0.00597780293916244 0.01433515715583474 -0.003584917556986868 -0.01779253447329912 
0 0 0 0 0 0 
0 0 0 0 0 0 
0 0 0 0 0 0 
0 0 0 0 0 0 
0 0 0 0 0 0 
0.06708686744821278 -0.005885289006739168 -0.03402459163386425 -0.02720777845273783 0.01610582291561029 -0.03492625268022585 
-0.06408576837217569 0.008310581167203396 -0.02116278171519179 -0.03607033029495293 0.0356701882862278 0.01154267676564985 
-0.005186605613119014 -0.00197557118153135 0.007358094049107305 0.01698404980561168 -0.006402725749128782 -0.01284598249009959 
0 0 0 0 0 0 
0 0 0 0 0 0 
0 0 0 0 0 0 
0 0 0 0 0 0 
0 0 0 0 0 0 
-0.004747741349216087 0.0001230662346381728 0.007765946424494826 -0.02808160651334398 -0.01861683986356064 0.01041757858630648 
-0.04519443317007341 0.05732806402660236 -0.01529176588454257 -0.0226313859662334 0.03743064840767369 -0.02880608781239125 
-0.003593172441832034 -0.006981742670905219 0.0003195910790577922 0.01466076309839695 0.001722630307177857 -0.005577782461765999 
0 0 0 0 0 0 
0 0 0 0 0 0 
0 0 0 0 0 0 
0 0 0 0 0 0 
0 0 0 0 0 0 
-0.02213383495923258 -0.03591996535633695 0.03434714771201235 -0.04140904203962539 -0.04417108690707489 0.04390031419641716 
-0.1133837203541257 0.08530676083962899 -0.002698368900656265 -0.01605290720689233 0.02853799174639764 0.03191661430234024 
0.02071946444084823 0.006169814467393657 -0.001494990744139662 0.003234073288267873 -0.006347482500539113 -0.02344257211506427 
0 0 0 0 0 0 
0 0 0 0 0 0 
0 0 0 0 0 0 
0 0 0 0 0 0 
0 0 0 0 0 0 
-0.03053589730744259 0.0144780317229925 0.03141704308167325 -0.0528580927882345 -0.02105953501420705 0.04869671121409163 
-0.03219215251168597 0.01845046155124983 0.00880032604441512 0.03021984745777932 0.006867221672423634 -0.05568369391830338 
0.00385570072556232 -0.0008741359495464084 -0.001955490989593442 0.01272687065547998 -0.004053399685495028 -0.01378027901890665 
0 0 0 0 0 0 
0 0 0 0 0 0 
0 0 0 0 0 0 
0 0 0 0 0 0 
0 0 0 0 0 0 
0.03241342662727819 0.01611850792444321 -0.001409649052527559 0.05411160708909038 0.00914138931455916 -0.07911531335102261 
-0.05999130303795167 0.01738018093917322 -0.001473567005944217 -0.007916221448925318 -0.02829103521963519 0.03642176357325103 
-0.001048884681874824 -0.006002290303425733 0.0001686507940585352 0.001023139069377953 0.008132419682346341 -0.005873885838631122 
0 0 0 0 0 0 
0 0 0 0 0 0 
0 0 0 0 0 0 
0 0 0 0 0 0 
0 0 0 0 0 0 
0.02182923600088777 0.0002942044489895508 -0.008068932529987539 0.05549987453226177 0.002324029114988129 -0.02271381256756897 
-0.01049281951618328 0.0631877830169759 -0.0293252803929378 -0.0589724049074335 -0.0290263278967508 0.02178332459071453 
0.0009951209430578542 0.00237364976958621 -6.328171686670655e-05 0.002941008903055238 -0.001542013521368854 -0.006737967288361762 
0 0 0 0 0 0 
0 0 0 0 0 0 
0 0 0 0 0 0 
0 0 0 0 0 0 
0 0 0 0 0 0 
-0.01371290998342965 0.01117359912572979 0.01856003591910266 0.0270236899269048 -0.00260672621008299 -0.02305711930039447 
-0.01967462387513752 0.040498100369307 -0.08376400803318695 -0.06382079372582303 0.03798900707370993 9.350064457217645e-05 
-0.001882922243317376 -0.01247318347556172 0.00153702577875192 0.0184282205150187 -0.004416441763153608 -0.002582666332244263 
0 0 0 0 0 0 
0 0 0 0 0 0 
0 0 0 0 0 0 
0 0 0 0 0 0 
0 0 0 0 0 0 
-0.008359028563365633 -0.02922653853200469 -0.04037460994850447 0.06071434909364887 -0.03431350097295265 0.02190464636640229 
-0.02190929632945064 0.00800068745118984 -0.01169916832111492 -0.01163508808346317 0.04222505962543054 -0.05519545842200473 
-0.00584268761168334 0.02007604685733427 -0.002252254492753259 0.003354594724239145 -0.0007252921034265858 -0.01971628460048465 
0 0 0 0 0 0 
0 0 0 0 0 0 
0 0 0 0 0 0 
0 0 0 0 0 0 
0 0 0 0 0 0 
-0.09996499035016002 -0.01476750511328158 -0.03063229277104263 0.06972112549133176 -0.04658868409291084 0.06384695464952636 
0.02537191779207558 -0.00372970907413146 0.003421753185273642 -0.03171372143646732 0.01148023061626672 -0.08273567306572929 
-0.004622578219110898 0.01306806462901908 0.004759222534465589 -0.001156513635458379 -0.008479751420333788 -0.009302661416478572 
0 0 0 0 0 0 
0 0 0 0 0 0 
0 0 0 0 0 0 
0 0 0 0 0 0 
0 0 0 0 0 0 
-0.06008222647342996 0.03004594027301702 -0.02256857287798656 0.03799790654243595 -0.007344781242944545 -0.05561941529487334 
0.00163434862975742 -0.05406855740734329 -0.0305800023791472 -0.003110384338664621 -0.006136028456277545 0.03428630700002544 
-0.00177033499929028 0.0006908888524858994 -0.001329656051963738 0.008879443938451899 -0.002921265409720407 -0.00256713403436427 
0 0 0 0 0 0 
0 0 0 0 0 0 
0 0 0 0 0 0 
0 0 0 0 0 0 
0 0 0 0 0 0 
-0.01527358454271335 -0.05008978572091364 -0.004971447810299836 0.03228971975822835 0.03455049985236764 -0.04872132883556747 
-0.05365921698942809 0.05092974605181852 -0.04332400431318195 -0.009948725065318655 0.0003111868834290877 0.01833942769724359 
-0.00368998029609844 -0.0015844387826783 9.90122108077597e-05 0.01512324487970007 0.0001439902766063493 -0.01255172546685827 
0 0 0 0 0 0 
0 0 0 0 0 0 
0 0 0 0 0 0 
0 0 0 0 0 0 
0 0 0 0 0 0 
-0.05293386230756581 0.01129532373387437 -0.03786762103250308 -0.003573852568741814 0.03289008305624515 0.02609891726659342 
0.05891033434477198 0.04158629542361318 0.01087737001751779 -0.05491563918833765 0.01649821271450451 -0.07258414440648797 
-0.0024095450231102 -0.01074333982059749 -0.0005579715968403746 0.02361767880603892 0.001390577157725031 -0.005760402029109344 
0 0 0 0 0 0 
0 0 0 0 0 0 
0 0 0 0 0 0 
0 0 0 0 0 0 
0 0 0 0 0 0 
-0.006872506585595877 -0.003779863398815446 -0.01393594732446682 0.03649091809895154 -0.01879465299388168 -0.01597464334359862 
-0.01825743569521105 0.08005236170794135 0.0003588830195371013 -0.03410498447327932 -0.01227107263172192 0.003409422720563141 
0.008891384001089051 0.003093787069011674 0.001589099698395512 0.0008822384528627479 0.002580661900124923 -0.01496433878130818 
0 0 0 0 0 0 
0 0 0 0 0 0 
0 0 0 0 0 0 
0 0 0 0 0 0 
0 0 0 0 0 0 
-0.04461212445487052 0.03725373436454317 -0.009516043975340716 -0.01558549330167884 -0.009781747765336775 0.01101361484171525 
-0.03721012251629879 0.02357060131199111 -0.0004218665021208428 0.008568652654205625 -0.007336432264754649 -0.001767143497182894 
0.001519230930427901 0.01824537137860243 -0.0002192206222314161 0.006844527013624946 -0.001731240786515607 -0.02568734908076937 
0 0 0 0 0 0 
0 0 0 0 0 0 
0 0 0 0 0 0 
0 0 0 0 0 0 
0 0 0 0 0 0 
-0.01319242736079935 0.03750982871448346 -0.005730033731261078 -0.001243718429552144 -0.02375652368581572 -0.02542891166070431 
-0.03004289034462206 0.02541548852700178 -0.0297801527223032 0.01774622602083038 0.007606408204884176 -0.006327413690486121 
0.0006668995669955046 -0.005225200493817615 0.002475737552672688 0.005662260702768215 -0.0002714060987275187 -0.007981295791049562 
0 0 0 0 0 0 
0 0 0 0 0 0 
0 0 0 0 0 0 
0 0 0 0 0 0 
0 0 0 0 0 0 
0.00980537487729817 0.02166643900239702 -0.01849312194796242 0.006616129319357226 -0.02320256870797113 -0.0206020745305685 
0.049681430231786 0.06153602271643125 -0.05325498933255512 -0.02520115101143778 -0.01867103556945462 -0.01247681679650245 
-0.007536573364508279 0.004415299337039522 0.0001652978730485877 0.004160271416492793 -0.0007493591517279556 -0.002299706320552802 
0 0 0 0 0 0 
0 0 0 0 0 0 
0 0 0 0 0 0 
0 0 0 0 0 0 
0 0 0 0 0 0 
-0.05869089217870137 0.05352565040250636 -0.006526491093703872 0.07645771887437394 -0.0390370860749398 -0.03917056950238749 
-0.002481796785724684 0.01617033487274503 -0.0677837833143526 -0.03470498802873469 0.02113803680854931 0.04364544043888124 
-0.002789738154411985 -0.007336838922824893 0.001628950516724888 0.01774496178977611 -0.004471315181722678 -0.004154274976162461 
0 0 0 0 0 0 
0 0 0 0 0 0 
0 0 0 0 0 0 
0 0 0 0 0 0 
0 0 0 0 0 0 
-0.07961399367581622 -0.01524204681700865 -0.03236768240466172 0.09473696883983436 -0.01354744521277876 -0.009851481663814199 
0.008243291113470427 0.016987841319453 -0.02472254277161169 -0.044558259711472 0.01094024249846396 -0.009379442676590502 
0.001059440878038677 -0.001214287709404969 0.003057771100912262 0.004723367779538362 -0.007646330060068925 -0.005042489249867522 
0 0 0 0 0 0 
0 0 0 0 0 0 
0 0 0 0 0 0 
0 0 0 0 0 0 
0 0 0 0 0 0 
-0.07448590791325553 -0.01427630030546341 0.01849063968494309 0.06290597693990026 -0.07748782948834988 -0.01112875969165693 
-0.04648016235344424 0.0492670295114238 -0.01635773910705205 -0.05330033049599413 0.01431074944165897 -0.02008575002270041 
0.0004191364317354205 -0.001063952715709208 0.001524999475502279 -0.0002226390820477546 -0.002751208307641187 -0.0008985061639323077 
0 0 0 0 0 0 
0 0 0 0 0 0 
0 0 0 0 0 0 
0 0 0 0 0 0 
0 0 0 0 0 0 
-0.05817697871282972 -0.02352865943801386 -0.02528936834137361 0.0392819330577571 -0.01099017958035376 -0.02045362897567223 
-0.05516315112404024 0.0481527491770421 -0.01677100120843403 -0.005704978624679169 -0.01172594715333343 -0.0263362351353323 
0.002056545766210883 -0.0007469615548827312 0.0001197654243171233 0.0007694406089901747 -0.003077881143068289 -0.001186054625672232 
0 0 0 0 0 0 
0 0 0 0 0 0 
0 0 0 0 0 0 
0 0 0 0 0 0 
0 0 0 0 0 0 
-0.006853446439168103 -0.0007041897034129603 -0.03507516700553744 0.06191769639367636 -0.04431362425059387 -0.05538567030284321 
-0.03516396643327643 0.03039609733695103 -0.02493744034858575 -0.03500149476817854 0.0224705503118456 0.03136223410711161 
-0.00202286929347753 0.0009833708120866604 0.001339521445780885 0.007113692658543167 -0.0008419710325667359 -0.004528619315984288 
0 0 0 0 0 0 
0 0 0 0 0 0 
0 0 0 0 0 0 
0 0 0 0 0 0 
0 0 0 0 0 0 
0.003027942239839886 0.01599485976535726 -0.04735917487646463 0.02498182162883639 -0.01237208711676232 -0.02143765107668591 
-0.02799998145987767 0.05741207085137895 0.0004345354012693917 -0.04325672794759281 0.03872856775310759 -0.004095600866922539 
0.004770034399959343 -0.009816915874013886 0.002639183041622161 0.01696527850447509 -0.006301473355544668 -0.01102671705275335 
0 0 0 0 0 0 
0 0 0 0 0 0 
0 0 0 0 0 0 
0 0 0 0 0 0 
0 0 0 0 0 0 
0.03444403176398731 0.01351493467691534 -0.04930859728031878 0.01896880890186614 -0.004139870951273499 -0.04731839213625335 
0.001724341277269245 0.08278121847462538 -0.01061733707698655 -0.04259770185938601 -0.07146580336263492 0.04493250918682173 
-0.0007499724039852385 0.01249794948924412 -0.002449971417481654 0.01068482234995177 -0.005889448509852802 -0.01313113765953493 
0 0 0 0 0 0 
0 0 0 0 0 0 
0 0 0 0 0 0 
0 0 0 0 0 0 
0 0 0 0 0 0 
-0.03729285929365563 0.01095570250798522 -0.0294419670394064 0.02793721821439181 -0.01680581006913437 0.008576733956245683 
-0.03544079456421392 0.08292572104104705 -0.01520739995620978 -0.00420390405030258 -0.002905698301784939 -0.04219510198671947 
-0.003440617474000607 0.002762311343349492 0.0005234384917425969 -0.01472609870778513 0.02285507834705628 -0.02060388180497674 
0 0 0 0 0 0 
0 0 0 0 0 0 
0 0 0 0 0 0 
0 0 0 0 0 0 
0 0 0 0 0 0 
0.04345412356751096 0.01877559120631921 -0.006432837734167573 -0.03703135490689248 -0.02995466013603154 -0.05148078088637899 
-0.06107815691425725 0.01680273293151461 -0.02694120877152963 0.04289217189522504 -0.003907479066211379 0.01553461280872406 
0.002405444556907849 -0.02750799448946385 0.001066656759933378 0.02014985169930332 0.008347556687789581 0.0005638633961360269 
0 0 0 0 0 0 
0 0 0 0 0 0 
0 0 0 0 0 0 
0 0 0 0 0 0 
0 0 0 0 0 0 
0.03236409263917234 0.004555199147903894 -0.01047878749693304 0.01644027327255195 -0.03777320843615672 0.01709755111635694 
0.04357259626689674 0.033067599585294 -0.06600344492138412 0.009979124336508223 -0.04675450401186894 -0.02222777092407194 
0.003647749673849828 0.008054533546064373 0.0004116983244109522 -0.0001519500177398676 -0.003379321855250976 -0.01009660543167557 
0 0 0 0 0 0 
0 0 0 0 0 0 
0 0 0 0 0 0 
0 0 0 0 0 0 
0 0 0 0 0 0 
-0.004802698680293105 -0.01767323223012259 -0.05065979051211453 0.06467176618212442 -0.03536179426808216 0.009426151471586658 
-0.05060661594655755 0.04268296942064315 -0.05530895017031524 -0.007954343248833788 0.02425465859271361 -0.01093919912756292 
0.002973207552689897 -0.01055813992406145 0.003311762830679585 0.01153873158291323 -0.004581198723025955 -0.0043819267542952 
0 0 0 0 0 0 
0 0 0 0 0 0 
0 0 0 0 0 0 
0 0 0 0 0 0 
0 0 0 0 0 0 
-0.06277060452256195 -0.01261044993653693 -0.01357507869809051 0.04462281707551293 -0.02861666165823264 -0.007507225456646116 
-0.02582251889442205 0.01500458627220226 -0.05873010890839713 0.02514394423315281 0.01171059433706463 -0.007310069477233862 
0.004138970804657072 1.958510702376835e-05 0.002111450013858826 -0.0003861710963872743 -0.001272793661287575 -0.005466222597874444 
0 0 0 0 0 0 
0 0 0 0 0 0 
0 0 0 0 0 0 
0 0 0 0 0 0 
0 0 0 0 0 0 
-0.1060253832531706 -0.008743595747223547 -0.02919252084045018 0.08580351254120694 -0.02217447491049238 -0.02605247496181649 
-0.01212592949323277 0.03455426393538324 -0.0133072565441474 -0.03909261955724899 -0.002160025768120546 -0.004471054433556175 
0.0001724776632694179 0.0002215413872559814 0.001065003834240034 0.005025208414709508 -0.001708998889703359 -0.003579709817534 
0 0 0 0 0 0 
0 0 0 0 0 0 
0 0 0 0 0 0 
0 0 0 0 0 0 
0 0 0 0 0 0 
-0.1133680123683082 0.08939855791128269 0.01320620419462909 0.05209176059164924 -0.03526996929987514 -0.05190782726160365 
0.03389494894396273 -0.0601017559201544 -0.002829975208393466 -0.02979688253904538 -0.02009349906054082 -0.02149488283681142 
0.00231939720320987 -0.0001324037694901557 0.004418300425188586 -0.001885086649804245 -0.002575611312673812 -0.002054856077691188 
0 0 0 0 0 0 
0 0 0 0 0 0 
0 0 0 0 0 0 
0 0 0 0 0 0 
0 0 0 0 0 0 
-0.01931488692213578 -0.03947047918633235 -0.05009529175996451 0.09072344383884641 -0.008065520863811121 -0.04273471774669953 
-0.02659293958174377 0.04405003758874095 -0.003044591345465323 -0.0434887442971719 -0.002811367409023272 -0.004482620528498015 
-7.385092533333242e-05 0.003039752795140827 0.001890998573597367 -0.002366294674409128 0.002542932602118527 -0.005960608167871854 
0 0 0 0 0 0 
0 0 0 0 0 0 
0 0 0 0 0 0 
0 0 0 0 0 0 
0 0 0 0 0 0 
0.04634806132972512 -0.06178299861784514 -0.05646681896468334 0.09731742119028461 -0.06623878982470566 -0.04119049721962116 
-0.003210095832870047 0.1098892835000959 -0.04534761071043973 -0.04829858258434861 0.01598509122642087 0.007120220671584384 
0.004119839367227827 -0.001028894316171845 0.002193242827825708 0.001981542841232633 -0.006950419661252067 -0.002975759525876373 
0 0 0 0 0 0 
0 0 0 0 0 0 
0 0 0 0 0 0 
0 0 0 0 0 0 
0 0 0 0 0 0 
0.02423243608858798 -0.01663598310701845 -0.02531949880387308 0.03077575729024888 -0.0106680059137432 -0.04462160529933996 
0.0570639971020605 0.08301318823262754 -0.03016077047487349 -0.06541254464319377 -0.07257245563810802 0.02434452312938263 
0.01996944696051879 0.008655633019212667 -0.003608697093667023 0.009183057535564936 -0.004870495472850758 -0.01969174073991296 
0 0 0 0 0 0 
0 0 0 0 0 0 
0 0 0 0 0 0 
0 0 0 0 0 0 
0 0 0 0 0 0 
-0.02899422013719099 -0.01503313731231256 -0.03648298924654465 0.02687542462266746 0.02957867366462762 -0.01614199024327275 
-0.04358753911748345 0.08725164930429745 -0.007806821752591135 -0.00616241691680292 -0.02365803530475014 -0.02630035882172756 
0.003235310262604285 0.0006327381266816054 0.003871027198528575 0.003854879674152421 0.001888881640782671 -0.01390334938833253 
0 0 0 0 0 0 
0 0 0 0 0 0 
0 0 0 0 0 0 
0 0 0 0 0 0 
0 0 0 0 0 0 
-0.002886747782169981 0.009952198879079504 0.005324597602091724 -0.02854216519738418 -0.01149927105666838 -0.02329432678981276 
-0.009433370600653739 0.0004915050267033728 0.01167862263522861 0.02610479693072344 -0.02714346846807135 -0.01700953447306019 
-0.001143011151736366 -0.000952858347462589 0.009270161475937308 0.02046071292817744 -0.0005052210283975527 -0.02752031823106033 
0 0 0 0 0 0 
0 0 0 0 0 0 
0 0 0 0 0 0 
0 0 0 0 0 0 
0 0 0 0 0 0 
0.07840329346691545 0.02347603604203327 0.03277406992194799 -0.02890031825407663 -0.06549876640679375 -0.05982940178491037 
0.004075323614756567 0.003991593701913963 0.0006659651904637055 -0.01582724702418839 -0.04443931919947088 0.004495550724104913 
-0.001529577831188995 -0.00724597404777344 0.005035807438093065 0.01043328045519727 -0.001454655404248977 0.000573787029800971 
0 0 0 0 0 0 
0 0 0 0 0 0 
0 0 0 0 0 0 
0 0 0 0 0 0 
0 0 0 0 0 0 
0.05775005064378894 -0.03882574405115059 0.01558197194924648 0.05307912897170725 -0.05665777323143788 -0.02824570917190529 
-0.02147515384200245 0.03417172699067277 -0.05834152952312793 -0.01334450367477827 -0.02778629659724222 0.008537069175991513 
-0.002558465271368921 -0.01014138887736374 0.005736216991283824 0.01208427634868136 0.002057133189931113 -0.004693562821090145 
0 0 0 0 0 0 
0 0 0 0 0 0 
0 0 0 0 0 0 
0 0 0 0 0 0 
0 0 0 0 0 0 
-0.04781565639649463 0.028484259376341 -0.03132840943000407 0.05538878551469033 -0.02892883813972248 -0.006154354564050225 
0.00757560463950278 -0.02426831900438692 -0.05592338845898528 -0.01762747473242834 0.02701715733274715 0.001783415163221136 
0.002487264084870138 0.005933597548704047 0.005813084375174175 -0.00105404574779629 -0.008340248322198714 -0.01133740902381406 
0 0 0 0 0 0 
0 0 0 0 0 0 
0 0 0 0 0 0 
0 0 0 0 0 0 
0 0 0 0 0 0 
-0.06707569135941277 0.003778041156634856 -0.04677662962377082 0.06150293396229337 -0.01519259331928618 0.01191482791349258 
0.05329975866528212 -0.01374899250625274 -0.02383480195485493 -0.0008009047690544722 0.01250094194395598 -0.05412093864443595 
-0.00346901643011481 0.01003363945704618 0.005074395946480212 0.004188254948235227 -0.003917597112682172 -0.00970054359703865 
0 0 0 0 0 0 
0 0 0 0 0 0 
0 0 0 0 0 0 
0 0 0 0 0 0 
0 0 0 0 0 0 
-0.09279118857512397 0.021771009480602 -0.0648758598220322 0.07836163853011267 0.01634974817057571 0.0003721710161802178 
0.03066368810551741 -0.03034239580002007 -8.517975461380237e-05 -0.01622151587648954 0.01573904909332869 -0.02961821802518796 
-0.000489470401401685 0.008562494126406237 0.0005788825163359455 -0.000634978954038952 0.0007144752815366762 -0.01128125669631713 
0 0 0 0 0 0 
0 0 0 0 0 0 
0 0 0 0 0 0 
0 0 0 0 0 0 
0 0 0 0 0 0 
-0.03754457825651292 -0.01603375873353309 -0.07281427170669701 0.09941038044944407 -0.003732638899696894 0.001596502110365281 
0.01601081683876769 0.01023316245490739 -0.02842330433825256 -0.04509666111364423 0.0206345128243674 -0.01904374462308269 
0.00169719982324421 0.006600232344229008 0.003641385957181064 -0.001746806004957279 -0.001853149729578277 -0.01045281620734582 
0 0 0 0 0 0 
0 0 0 0 0 0 
0 0 0 0 0 0 
0 0 0 0 0 0 
0 0 0 0 0 0 
0.1087864570211168 -0.04389033777036239 -0.02053534890124752 0.03309362032918868 -0.05522444858545317 -0.03906705890380924 
-0.0266712485957247 0.08077469787578502 -0.0313834479058157 -0.01265094655705416 -0.04381057330260585 0.00683792035187927 
-0.002382515419656191 -0.006178980726010701 0.007784583800793793 0.00746908992196451 -0.003839548655982223 -0.0008678167650508494 
0 0 0 0 0 0 
0 0 0 0 0 0 
0 0 0 0 0 0 
0 0 0 0 0 0 
0 0 0 0 0 0 
0.01600055598973664 0.04658959701503047 0.003522384654754636 0.005934025932108397 -0.07118698270320711 -0.01725809916402053 
0.07692217543440925 0.02620391410240527 -0.000771034055449938 -0.04885404471948186 -0.0484243811233416 -0.04004037834456465 
0.024573185010228 -0.002274597243727689 0.002652521918778019 0.003087931779058859 -0.01108903106516385 -0.01129734706896365 
0 0 0 0 0 0 
0 0 0 0 0 0 
0 0 0 0 0 0 
0 0 0 0 0 0 
0 0 0 0 0 0 
-0.04296702575688132 0.02189656519255522 0.005703955306825083 0.01271388548528782 -0.02185243751020135 -0.01687073760797258 
0.03064168535381808 0.03056010819881505 0.0036671547789362 -0.03333988561610513 -0.006810654105906402 -0.04183624619136251 
-0.005133027712672644 -0.0005388010489805246 -0.000707990338827954 0.004170261857022366 0.005400903170809364 -0.009328279681720245 
0 0 0 0 0 0 
0 0 0 0 0 0 
0 0 0 0 0 0 
0 0 0 0 0 0 
0 0 0 0 0 0 
-0.05617116823880945 -0.02749872973840208 0.005560117320835898 0.01905311039372622 -0.009156589800949537 -0.0001044574214064814 
0.02643105242783919 0.009611661266319431 0.01347891753673718 -0.009286493890183826 -0.03121356715143808 -0.02510790403702181 
-0.005027859423408054 0.005278786802707739 0.006086836563583949 0.01451264648008178 -0.002214982635469064 -0.02443858334688907 
0 0 0 0 0 0 
0 0 0 0 0 0 
0 0 0 0 0 0 
0 0 0 0 0 0 
0 0 0 0 0 0 
0.06765620866846578 -0.06723418029307976 0.03880200531174417 0.001872385065472065 -0.08483413526148326 -0.03145192285230314 
0.03696595923727981 0.01391483991771068 0.01533538354588086 -0.04129124705072252 -0.0578342214641726 -0.004185562821500149 
-0.00419183143071674 -0.000969756668193195 -0.001173071629696464 0.01005159873109525 -0.0001904339709518337 -0.0112966893547015 
0 0 0 0 0 0 
0 0 0 0 0 0 
0 0 0 0 0 0 
0 0 0 0 0 0 
0 0 0 0 0 0 
-0.002731439945603238 -0.04358270067639913 0.02309841048280659 0.01180084105211371 -0.00577344524063176 -0.02531642493432202 
0.08834857480976843 0.01415033507601158 0.01681398094902055 -0.06636175517978413 -0.1350329124471078 0.04022155460968627 
-0.00111260833268108 -0.001599737156773841 0.000511091269602096 0.01497523672986189 -0.003201239874073244 -0.01060025740530862 
0 0 0 0 0 0 
0 0 0 0 0 0 
0 0 0 0 0 0 
0 0 0 0 0 0 
0 0 0 0 0 0 
-0.01344152723284552 0.01017098677843823 -0.01626570919326166 0.04560117465424885 0.0009394483810274367 -0.06657865285492506 
0.03757002411196919 -0.02879615013353002 -0.03606716068197181 -0.09367181305933529 0.002723030185378892 0.04704460870564704 
-0.0003272157814117547 0.001966708001881707 0.009099098337927011 0.007921502727861593 -0.002368773603031724 -0.01937404618588536 
0 0 0 0 0 0 
0 0 0 0 0 0 
0 0 0 0 0 0 
0 0 0 0 0 0 
0 0 0 0 0 0 
0.05371799647892514 -0.007557465451766753 -0.08469225374625053 0.07614265025694789 0.01743709076360297 -0.06668163740862008 
-0.01927220564237818 -0.02964957640306332 0.01252051880690688 -0.01141904832568807 0.003735458871284204 0.03941580353507802 
-0.004695990124371131 0.01513522548257571 0.001209959884980879 0.005868393928236491 -0.00668075496681175 -0.01909580879966606 
0 0 0 0 0 0 
0 0 0 0 0 0 
0 0 0 0 0 0 
0 0 0 0 0 0 
0 0 0 0 0 0 
0.04933483600518225 -0.01703894214932783 -0.03801080492756749 0.05487127750920209 0.02004894757952121 -0.08327428752971461 
-0.03005954810992453 -0.02598153034735301 -0.0704820470395604 0.02753840063535525 0.0008320177809822616 0.07847909100201116 
-0.006149734739210664 0.02042717120388731 0.001483314557584323 -0.003836409447003513 -0.005442798047896781 -0.01391984939164719 
0 0 0 0 0 0 
0 0 0 0 0 0 
0 0 0 0 0 0 
0 0 0 0 0 0 
0 0 0 0 0 0 
0.0556295606582175 -0.01445147867077318 -0.01778179840545991 -0.01989324533637493 0.03323473473043703 -0.04782111723131521 
0.01372351990325628 -0.02891352990635498 -0.05095281933563126 -0.02206840829672602 0.008323972571086672 0.02962782284131794 
-0.001094916206623319 0.009279312584480644 0.007636812316431422 -0.004707171312843102 -0.003456589239682816 -0.01459932566323659 
0 0 0 0 0 0 
0 0 0 0 0 0 
0 0 0 0 0 0 
0 0 0 0 0 0 
0 0 0 0 0 0 
0.03015740415774846 -0.07436678348601622 -0.00577578853037272 0.02190365287449216 -0.03561048682401165 0.04665499800614082 
0.07790599142668511 0.05352086659075067 0.005824362708527101 -0.04919669821467158 -0.105982929982072 0.0008498946087679185 
0.009399997121146635 0.002455664404541536 -0.00192969822208021 0.003198902003524978 -0.003930156036438368 -0.0141903111395284 
0 0 0 0 0 0 
0 0 0 0 0 0 
0 0 0 0 0 0 
0 0 0 0 0 0 
0 0 0 0 0 0 
-0.03207970238184826 0.009439679529691439 0.03962562859503838 -0.007181837944299677 -0.06050310493270121 -0.02224659086059878 
0.04877502700137161 -0.01492127800533057 0.01870570099583434 -0.02560003044120545 -0.05481750232981802 0.009465336004642468 
0.003736150526434278 0.007851207998816287 0.0010360502025569 0.008051846490738033 -0.003173146988552981 -0.01799008268900196 
0 0 0 0 0 0 
0 0 0 0 0 0 
0 0 0 0 0 0 
0 0 0 0 0 0 
0 0 0 0 0 0 
-0.06133562068504859 -0.0277979038972913 0.02873292552187804 0.03346455644052727 -0.02094089942426832 -0.01683709765761887 
0.03145313869232269 0.02610673021048839 0.01522011733997774 -0.01960618093499865 -0.01630454078028677 -0.03895334792250315 
-0.005827886195333906 0.002303916990711676 0.003797226357798369 0.005418870721846133 -0.003950575949185132 -0.008067636540680311 
0 0 0 0 0 0 
0 0 0 0 0 0 
0 0 0 0 0 0 
0 0 0 0 0 0 
0 0 0 0 0 0 
-0.02055032673739271 -0.06237751758695945 -0.005584486213990177 0.04088331347391362 -0.02669734755904427 -0.001971794952683438 
0.02034254870588519 0.008026480025015445 0.02527321058010097 -0.01798609762940839 -0.0005819211053669667 -0.02925902583244588 
-0.00591302896176856 0.004955414060969344 0.005831209505666547 0.01418685565151402 -0.0007263112629902915 -0.02389679931888241 
0 0 0 0 0 0 
0 0 0 0 0 0 
0 0 0 0 0 0 
0 0 0 0 0 0 
0 0 0 0 0 0 
0.06460077563784981 -0.04231899366364859 -0.01571982440888959 0.005406211853217857 -0.03582592108462662 -0.02405643952568422 
0.02201251446593228 -0.05520436982721644 0.01999240057007183 -0.01853902974028869 -0.02078300880421744 0.04482158888625545 
-0.006305394064976082 -0.005813712648537416 -0.0001277355203623434 0.02131322852303923 0.00106358076254981 -0.005151606799913624 
0 0 0 0 0 0 
0 0 0 0 0 0 
0 0 0 0 0 0 
0 0 0 0 0 0 
0 0 0 0 0 0 
0.113413503946706 -0.04644777825404987 -0.01688244998146897 -0.02146825469223483 -0.05350694159955258 0.003058176908201824 
0.01269943648531475 0.01444931196898739 -0.02450192441162632 -0.07177902764470628 0.02151198325857135 0.001676491817998929 
-0.006150999675042368 0.01209816067430543 -0.001323221705247143 0.01335900771049596 -0.003616018112768144 -0.01546711747018513 
0 0 0 0 0 0 
0 0 0 0 0 0 
0 0 0 0 0 0 
0 0 0 0 0 0 
0 0 0 0 0 0 
0.06002908106363216 -0.05197277154538116 -0.02437781677079832 0.0146306745688882 0.002437362192336202 -0.03435173327146133 
-0.05471688274225083 -0.01274910956980964 -0.04378542975893664 -0.02517336733770954 0.02951949157449455 0.05829581349873553 
-0.003228433775138852 -0.002279745337946934 0.003862399670252378 0.01472663458927894 -0.009132672883448807 -0.009932865826011881 
0 0 0 0 0 0 
0 0 0 0 0 0 
0 0 0 0 0 0 
0 0 0 0 0 0 
0 0 0 0 0 0 
0.06365553201451049 0.008420119640409191 0.00263638373166764 -0.06351431873561469 0.006233593877510049 -0.03868831808148335 
-0.02914720756199556 -0.04007830055004503 -0.04670990763976252 -0.01699151588168734 0.04748764287783677 0.05739655611191613 
-0.005727680714644831 -0.0005795634735215318 -0.001634374609634952 0.0348018022240392 -0.01006136582128976 -0.02451157488129857 
0 0 0 0 0 0 
0 0 0 0 0 0 
0 0 0 0 0 0 
0 0 0 0 0 0 
0 0 0 0 0 0 
0.03609096349689819 -0.0172981105509671 -0.06174897417258997 -0.01097759029869913 0.06159327869889887 -0.03140050960220835 
-0.02954155892419309 -0.0223765167873975 0.003668509316048901 -0.05372484500715905 0.02244796509287167 0.04419554673704645 
-0.00261401914708019 0.007435683920403099 -0.003149271246616907 0.01588405354459632 -0.004498695053261757 -0.02231129367043408 
0 0 0 0 0 0 
0 0 0 0 0 0 
0 0 0 0 0 0 
0 0 0 0 0 0 
0 0 0 0 0 0 
0.04031641603393864 -0.01713323293469307 -0.03837615046143192 0.002476806998642879 0.02817750562514466 0.002334918570123619 
0.04646554368011952 -0.04495483280246405 -0.03816909545739243 -0.02919012061629092 0.02255432069898802 0.008743540492273317 
0.001087792484967289 0.006763910716500281 0.003682141503362198 0.001856429089783845 -0.003014582539159829 -0.01594396063199616 
0 0 0 0 0 0 
0 0 0 0 0 0 
0 0 0 0 0 0 
0 0 0 0 0 0 
0 0 0 0 0 0 
0.06993398109988763 -0.03894203623674406 0.003517823159295588 -0.07121236790171308 -0.0008697053109740586 0.004570398876859826 
0.006638202290417242 -0.003897399482291883 -0.03173951303874636 -0.02862048060582069 -0.03094598124130176 0.05083051312756623 
-0.007304178073400456 -0.006979506278270887 0.0005140429259982021 0.01482468556197652 0.0007744198155815932 -0.004876477370809438 
0 0 0 0 0 0 
0 0 0 0 0 0 
0 0 0 0 0 0 
0 0 0 0 0 0 
0 0 0 0 0 0 
0.006147034894637339 -0.03014497664869007 0.0235592986098729 -0.0239485032177619 -0.03012480358170182 -0.004578172583651012 
-0.003579091446933662 -0.03745461721954583 -0.00507028307571035 -0.004746567290859684 0.004317914891869908 0.0336743567343666 
-0.009655262970072862 -0.00831340359195642 -0.00656464217039025 0.01676962428816396 0.002699349630309176 -0.0009882569873803522 
0 0 0 0 0 0 
0 0 0 0 0 0 
0 0 0 0 0 0 
0 0 0 0 0 0 
0 0 0 0 0 0 
-0.05468997845947249 -0.01469273623577575 0.01923861451536124 0.01519702275982262 -0.01306023494290018 0.002323743002430284 
0.01826025026571235 -0.01182844052648348 -0.01292740150227271 0.03008412650260061 0.009048351985495619 -0.032549879767018 
-0.006328762759150156 -0.004020315653000386 0.00470410957831716 0.01822354454094614 -0.003600283205142459 -0.01561931931597818 
0 0 0 0 0 0 
0 0 0 0 0 0 
0 0 0 0 0 0 
0 0 0 0 0 0 
0 0 0 0 0 0 
0.007662597501418322 -0.08454235221891537 -0.0362474015109265 0.03463003023014615 -0.001583395902488543 0.03388731539318176 
-0.001955250464518431 -0.004870696586773804 0.03141653556765456 -0.0127363383469857 0.01426936603468019 -0.04065538358687745 
-0.01012541995057235 0.0225575291728917 0.01867026157277006 0.003075657926454518 -0.003433058546529354 -0.03564168800761305 
0 0 0 0 0 0 
0 0 0 0 0 0 
0 0 0 0 0 0 
0 0 0 0 0 0 
0 0 0 0 0 0 
0.03253824689329609 -0.060063031023804 -0.03787755805832438 0.00940173257779716 0.009837038396874297 0.0003398472648088179 
-0.02334858282387506 -0.009917543254513782 0.05143328390662619 -0.008534931706799325 -0.02003618976207281 0.008097081090855506 
0.00043471971411344 -0.01439202401052777 -0.008217058618327703 0.02860669203042954 0.02051252418384167 -0.01774497887242461 
0 0 0 0 0 0 
0 0 0 0 0 0 
0 0 0 0 0 0 
0 0 0 0 0 0 
0 0 0 0 0 0 
0.04442879472652018 -0.03897322475238424 -0.04860327881601265 -0.03396601044855369 0.01128488730936884 0.01849667042708909 
-0.02004160079643519 0.01362720743895894 0.04111199840376736 -0.02956431158777507 -0.008928482049530374 0.006514562271137804 
-0.0052231024376717 0.009561729151129303 -0.005891214153571823 0.0158951773820486 0.004634634212752231 -0.02887830239818364 
0 0 0 0 0 0 
0 0 0 0 0 0 
0 0 0 0 0 0 
0 0 0 0 0 0 
0 0 0 0 0 0 
0.0322613979709336 -0.02390893711121416 -0.02967304920053947 -0.06422176571455307 -0.0002298798758814265 0.05666752624464631 
-0.004649270088053692 0.01356265308215746 0.01432187914998964 0.005749085125749604 0.008595130951748844 -0.02871856533942971 
-0.007217052183223317 -0.005328419258752372 0.008542620021331175 0.02649024010130018 -0.006084005222869038 -0.01925084554658108 
0 0 0 0 0 0 
0 0 0 0 0 0 
0 0 0 0 0 0 
0 0 0 0 0 0 
0 0 0 0 0 0 
0.01919633270938385 -0.04280596414520285 -0.00875604581163939 -0.05564273607833012 -0.005715792488431628 0.04262726617785598 
-0.008117538295985074 0.03786742385272251 0.01355864465056168 -0.01722705602831698 0.01852907191657963 -0.02791414005214411 
-0.004509346940331015 0.008909715675223461 -0.005419590839134824 0.00651820337808469 0.002286382562993057 -0.0177822972829002 
0 0 0 0 0 0 
0 0 0 0 0 0 
0 0 0 0 0 0 
0 0 0 0 0 0 
0 0 0 0 0 0 
-0.01454532934696558 -0.02506059922760312 0.001669736369268546 -0.03045720564946741 0.01228930032757877 0.01106167943853073 
0.0231167734151098 0.0355983494660934 -0.01001117864698703 -0.03972758270406015 0.01596543759117338 -0.02003185050580219 
-0.001409079959294359 0.0287462102494195 -0.01309287276149542 -0.003802258011521714 0.007011585335511388 -0.02835452808538897 
0 0 0 0 0 0 
0 0 0 0 0 0 
0 0 0 0 0 0 
0 0 0 0 0 0 
0 0 0 0 0 0 
0.0475620696161702 7.691425171385664e-05 0.01140686785901919 -0.06000870485986233 -0.007690677389651761 -0.000252398335674217 
0.002816075183436508 -0.01725089993249398 -0.01638063906277637 -0.01029144932924399 0.02213584114886773 -0.001181416820838885 
-0.008029376830143079 -0.01262682845046431 0.004552999985612728 0.03014857859168063 -0.002235678630887464 -0.0135795773682617 
0 0 0 0 0 0 
0 0 0 0 0 0 
0 0 0 0 0 0 
0 0 0 0 0 0 
0 0 0 0 0 0 
0.058943093604978 -0.01849244863149827 0.005726912561622359 -0.004394353582593286 -0.04036713976200864 -0.008399390491855509 
-0.01593131429210286 -0.009803583727840853 -0.003317932859959796 -0.03194487682585315 0.03373459909232698 0.0001794706196962263 
-0.001677935806820426 -0.0131080735793201 -0.02056694171770438 0.0222701703918299 0.02785723821165945 -0.01859950674657398 
0 0 0 0 0 0 
0 0 0 0 0 0 
0 0 0 0 0 0 
0 0 0 0 0 0 
0 0 0 0 0 0 
0.009708452918385225 -0.009675230143915912 0.04136814340450459 -0.06030839785344185 -0.04930314262553142 -0.005391800315896061 
-0.01734177323114725 -0.01740451735410115 -0.01794988834491208 0.01518579672289417 0.02249947807610762 0.02898772565048888 
-0.006236555751347288 -0.01069152713881013 -0.006137364578097034 0.02713435268898615 0.00423515167010849 -0.01184806343941992 
0 0 0 0 0 0 
0 0 0 0 0 0 
0 0 0 0 0 0 
0 0 0 0 0 0 
0 0 0 0 0 0 
0.03917854730911068 0.01335391677040922 0.01110506294542664 0.01139944849339868 -0.02631479587175996 -0.08301560044706371 
-0.02917966532791516 -0.06206812900296595 0.01953854828449193 0.02507533854811977 0.01014746065635902 0.03817560406028924 
-0.004926857272994433 -0.0045032020349129 0.005668849032586253 0.02182609564816292 -0.002479030740732075 -0.0161916796965096 
0 0 0 0 0 0 
0.05349078410091523 0.01310758594113375 -0.07443196316229458 0.02913924743879184 -0.0177365447902998 -0.05051976090507759 
0 0 0 0 0 0 
-0.005532785452409846 -0.009168065545887408 0 0 0 0.01734173203663312 
0 0 0 0 0 0 
0 0 0 0 0 0 
0 0 0 0 0 0 
0 -0.006018007355618877 0 -0.004074133170262869 0.0104444437969093 -0.0005174795555128302 
-0.001963016934399551 -0.007196976503872281 0 -0.002111151863820562 -0.003444847522475823 0.01599682452907505 
0.01862543467882885 -0.02770972624116764 -0.06834646390074831 -0.02472131149445841 0.00609195033256563 0.05391552162250798 
0 0 0 0 0 0 
0 0 0 0 0 0 
0 0 0 0 0 0 
0 0 0 0 0 0 
0 0 0 0 0 0 
0 0 0 0 0 0 
-0.01100807964170008 -0.003226421225616369 0.0185493219190464 -0.01290760803743653 0.009039198140333455 -0.003870673396860654 
0.05349227473992479 -0.01176469970830985 -0.06620345600342022 -0.01254464457490771 -0.0004699846740328892 -0.0432005825572046 
0 0 0 0 0 0 
0 0 0 0 0 0 
0 0 0 0 0 0 
0 0 0 0 0 0 
0 0 0 0 0 0 
-0.0009923419174179293 -0.01021290375740492 0 0 0.01473879457062792 -0.0006320948466729815 
0 0 0 0 0 0 
0.02930067173716945 0.008601690373968124 -0.003755690985066878 -0.06432197517486783 -0.02509033525393483 -0.03565554193167879 
-0.003386284320272788 -0.01181507327672186 0.02911717939722884 -0.003818793211006524 0 -0.004361449530632351 
0 0 0 0 0 0 
0 0 0 0 0 0 
0.004146476910769112 -0.003667592538715168 0 -0.002330718619052179 -0.008445172353980221 0.009931597330745404 
0 0 0 0 0 0 
0 0 0 0 0 0 
0 0 0 0 0 0 
-0.001606261365462656 0.04298698750045198 0.04245465522966425 -0.02417501535145067 -0.1086216723337498 -0.01650925475817575 
0 0 0 0 0 0 
0 0 0 0 0 0 
0 0 0 0 0 0 
0 0 0 0 0 0 
0 0 0 0 0 0 
0 0 0 0 0 0 
0.006393012477700896 -0.00153719323033983 0 0 -0.00271492370629128 -0.001655091443449118 
0.02051595667621535 0.06821087399987422 0.0113167096134547 -0.04094567728834675 -0.06673181339397288 -0.04848625533452602 
0 0 0 0 0 0 
0 0 0 0 0 0 
0 0 0 0 0 0 
-0.001963016934399551 -0.007196976503872281 0 -0.002111151863820562 -0.003444847522475823 0.01599682452907505 
0 0 0 0 0 0 
-0.005047050398190703 0 0 -2.027264791262813e-05 0 0.01236587048961145 
0.02352279959979564 -0.009066586060973337 0 -0.004951691742275214 -0.002509910298089435 -0.01457448620419067 
0.03953952006114916 -0.02296229535280882 0.01406555470759398 -0.03789050310275901 -0.05265534464748428 -0.03296115177203854 
0 0 0 0 0 0 
0 0 0 0 0 0 
0 -0.007671196019271118 -0.0001658779070798908 -0.008976925906830689 0.02231440292405088 -0.006101979573825566 
0 0 0 0 0 0 
0 0 0 0 0 0 
0 0 0 0 0 0 
-0.0009923419174179293 -0.01021290375740492 0 0 0.01473879457062792 -0.0006320948466729815 
0.02440758606860408 -0.03304467930826126 -0.007387637850455138 -0.04859338371189902 0.02491920527663659 -0.02810866910220317 
0 0 0 0 0 0 
0 0 0 0 0 0 
0 0 0 0 0 0 
0 0 0 0 0 0 
0 0 0 0 0 0 
0 0 0 0 0 0 
0 -0.008951389382303904 0 0 -0.005108772493591514 0.01411198452812224 
-0.03629868635891006 -0.01259490896399386 -0.01100712385776498 -0.006791520662917802 -0.01185271860579999 0.0427677228700766 
0 0 0 0 0 0 
0 0 0 0 0 0 
0 0 0 0 0 0 
0 0 0 0 0 0 
0 0 0 0 0 0 
0 0 0 0 0 0 
0 -0.008951389382303904 0 0 -0.005108772493591514 0.01411198452812224 
0.03764055037159595 -0.03357162025406304 -0.01342104926939102 0.004022343771837518 -0.03941254993641605 0.008492454227734337 
0 0 0 0 0 0 
-0.0006254749528702205 0 -0.007207802832267464 -0.002986288550709813 0.01159301655076052 0 
0 0 0 0 0 0 
0 0 0 0 0 0 
0 0 0 0 0 0 
0 0 0 0 0 0 
-0.003287490823258218 -0.0137760857135746 0 0 -0.003867579082153929 0.02922225950492452 
0.04286241530853947 0.01476216758648382 -0.06501136851643263 0.00720570912525693 -0.007686975463027304 -0.02703648246074501 
0 0.01528075089692496 -0.0003030708176038273 -0.006156272832276816 0 -0.01297154135922332 
0 0 0 0 0 0 
0 0 0 0 0 0 
0 0 0.01588640645822818 -0.009299175057908856 -0.002351616768948536 0 
-0.008330997182255882 -0.007282651981449974 0 -0.002378408719463205 0 0.0166380858081899 
0 0 0 0 0 0 
-0.01100807964170008 -0.003226421225616369 0.0185493219190464 -0.01290760803743653 0.009039198140333455 -0.003870673396860654 
0.05100553104556094 0.009602676000399902 -0.009894870205925473 -0.05718175318270227 -0.004371260642854876 -0.02691147372749853 
-0.002377353879523865 -0.002312929283166511 0 -0.004390523821019645 -0.001119767312074925 0.0100203744798299 
0 0 0 0 0 0 
0 0 0 0 0 0 
0 0 0 0 0 0 
0 0 0 0 0 0 
-0.005532785452409846 -0.009168065545887408 0 0 0 0.01734173203663312 
-0.01108229998600792 -0.003528109530799996 0.02035263758529062 -0.001368897692593945 -0.002812865220295444 0 
0.0652686923664568 -0.02859887530438686 0.02325784582722521 -0.06324931180075091 -0.001183137033928245 -0.04692587299554789 
0 0 0 0 0 0 
0 0 0 0 0 0 
-0.02310342558451867 -0.002031675122438585 0 -0.004702942098350798 0 0.02683400850134306 
0 0 0 0 0 0 
0 0 0 0 0 0 
-0.008179068134073037 -0.007489114136934095 0 0 0 0.007488375310266752 
-0.01100807964170008 -0.0006849389890302164 0.0185493219190464 -0.005539033899157456 -0.001657611928229045 0 
0.01096993166986932 0.01213480881348363 0.04180257489990916 -0.01467789339745786 -0.04093663839942884 -0.08136744690322362 
-0.005396570853094293 -0.0076489894497169 0 -0.0005807901522075894 0 0.01091300394169022 
0 0 0 0 0 0 
-0.003187074411175521 -0.005929820392195117 -0.002976340681075515 0 0.01762531455053226 0 
-0.01188645422148061 0 -0.008537840987257558 -5.421010862427522e-20 0.03355658340530122 -0.00466244382690514 
0 0 0 0 0 0 
-0.002177241635718463 -0.006597942618483857 0 0 -0.001534230755971046 0.01787974851689685 
0 0 0 0 0 0 
-0.03419133365363314 0.02378130655759415 0.0384093022485405 0.009308615444068453 -0.06977323616119011 -0.03107532145127122 
0 0 0 0 0 0 
0 0 0 0 0 0 
0 0 0 0 0 0 
0 0 0 0 0 0 
0 0 0 0 0 0 
-0.01291236249726628 -0.0144304743737154 -0.0001658779070798908 -0.005419992889330266 0.006224227173941427 0.02516755759191555 
0.01454825950064531 0 0 -0.002896050034562161 0 -0.02012275794371203 
0.01059903499611234 0.02546237570236324 0.06580657822240819 0.008624035644078789 -0.08052083130163107 -0.08916312196737622 
0.01159146121805207 -0.00334961803663886 0 0 0 -0.004928344518741916 
0 0 0 0 0 0 
0 0 0 0 0 0 
0 0 0 0 0 0 
0 0 0 0 0 0 
0 0 0 0 0 0 
0.01724551037970842 -4.153722161638776e-05 -0.003496862770153635 -0.008625338536872107 0.01254020843911049 -0.02352534205841545 
-0.01337856914804691 -0.007167988459532572 0.02011994866590348 -0.04956175606292562 -0.06058859463309618 -0.0005776070491083491 
-0.001005537749001583 -0.01889320982538125 0 -0.006428330065140764 0.02151119269847768 0.01167551614640794 
0 0 0 0 0 0 
0 0 0 0 0 0 
0.00129259188614464 2.168404344971009e-19 0 -0.004702942098350798 -0.0008924696127484658 0.004535778200788231 
0 0 0 0 0 0 
0.008161903063572399 0 0 0 0 0 
0.01551521400633937 0 0 -0.003059185972388519 -0.004596584554130921 -0.007907674262008649 
0.009560597811922762 -0.004121496119792172 0.02190631800075768 -0.06839505261147642 0.00941939950362489 -0.01587181769295022 
0 0 0 0 0 0 
0 0 0 0 0 0 
-0.003946010836976642 0 0 -0.00328721049592848 0 0.01002543003607346 
0.01551521400633937 0 0.009609485064816894 -0.005020368583184555 -0.005164289862354122 -0.01247370885858346 
0 0 0 0 0 0 
0.009526207688437538 -0.0005768704501755833 0 -0.002624299193105585 0 -0.008545052221350755 
0 -0.001653188663652237 -0.0001658779070798908 -0.004902792736567827 0.01186995912714158 -0.005584500018312731 
0.03356091535168377 -0.07943322504914624 -0.04944570178889342 0.03088251552597594 -0.01985452873656651 0.05008655039561968 
0 0 0 0 0 0 
0.01391718905380721 0 0 -0.001321907858553635 0 -0.006472440587520118 
0 0 0 0 0 0 
0 0.01451085470090247 0 -0.004194462307657434 0 -0.01323634351787993 
0 0 0 0 0 0 
0 0 0 0 0 0 
0 0 0 0 0 0 
0.02976816068137688 0.02996860479997 -0.04586657480049224 0.0006243589472389867 -0.04522103317088837 -0.0113114548537255 
-0.0003364630025296046 -0.002402334876497141 0.0072940285173223 0 -0.002672199412654518 0 
-0.004128172511948999 0.009892030088105696 -0.0005623676446630864 0 0 -0.001794548455854774 
-0.00312669755181178 0 -0.005066095933343567 0 0.01233527688963057 -0.001291249202432141 
0 0.01451085470090247 0 -0.004194462307657434 0 -0.01323634351787993 
0 0 0 0 0 0 
0 0 0 0 0 0 
0 -0.001653188663652237 -0.0001658779070798908 -0.004902792736567827 0.01186995912714158 -0.005584500018312731 
0.1171695117428483 -0.05844110229592835 -0.05930389710221998 0.01410231533588483 -0.03075830570076396 -0.01336246695649163 
0 0 0 0 0 0 
-0.009079335205153563 -0.006287559402968459 0 -0.0004148263845059736 0 0.01242363466304217 
0 0 -0.0005930429048698283 -0.0001136618831584762 0.02160986671192895 -0.00141626943907145 
0 0 0 0 0 0 
0 0 0 0 0 0 
-0.003669056126781714 -0.00423843065416638 0 -0.0008260539198789399 -0.003807524857394527 0.01815967959821491 
0 0 0 0 0 0 
0.01667139277491261 -0.02439851412494645 -0.002185157074166168 0.03525160661331381 -0.01336141330645656 -0.04482898692012168 
-1.319583158365326e-05 -0.002445310894383933 0 -0.002682219575465111 0.01099401001364575 -0.004922983656291258 
0 0 0 0 0 0 
0 0 0 0 0 0 
0 0 0.01588640645822818 -0.009299175057908856 -0.002351616768948536 0 
0 0 0 0 0 0 
0 0 0 0 0 0 
0 -0.006234995173592398 0 -0.003746110489675659 -0.004221611885796025 0.01723059464937217 
-0.01157050236650607 0.0131634546617762 0.01955863368878672 -0.01989112013274225 -0.02213978499296508 -0.02223139617280456 
0.006226597556813188 -0.003694686554129179 -0.004264727055311135 -2.027264791262802e-05 0.01508559461098943 0.008998266775870331 
0 0 0 0 0 0 
0.01146105731623032 -0.001301753560363336 0 -0.003682280565465548 -0.00115069058663152 0 
-0.0009923419174179293 -0.01021290375740492 0 0 0.01473879457062792 -0.0006320948466729815 
0 0 0 0 0 0 
-0.001423282177897464 0.01716899350516415 -0.002823051123220998 -0.00407413317026287 0.005040164819963365 -0.002572040580465417 
-0.01108229998600792 -0.003528109530799996 0.02035263758529062 -0.001368897692593945 -0.002812865220295444 0 
-0.02985092149226497 0.01237736034024184 0.06490960616121988 -0.03095185054796896 -0.06327222934446765 0.008792318747227669 
0.01763005001875383 -0.007816419835664326 0 -0.005545354886153389 0 0 
0.008985235127119445 -0.001187352418613634 0 -0.002095790683590677 -0.003517977148819489 0 
0 0 0 0 0 0 
0 0 0 0 0 0 
0 0 0 0 0 0 
0 0 0 0 0 0 
-0.01108229998600792 -0.003528109530799996 0.02035263758529062 -0.001368897692593945 -0.002812865220295444 0 
0.03993766652181849 0.07820884416415466 0.05356930436149056 0.01437377970387748 -0.1075250785795515 -0.09822871364164271 
0.004713560998386965 0 0 -0.004432034811777424 -0.002067581329049347 0 
-0.006919435968252097 0 -0.002868026076425844 0 0.001966197760178689 0.006031740052143618 
0 0 0 0 0 0 
-0.004986022714927198 0 5.692061405548898e-19 0 0.007031863312284435 1.626303258728257e-19 
0 0 0 0 0 0 
0.01715856901391549 -0.006018007355618876 0 -0.009378434897510515 0.0104444437969093 -0.005390139036003046 
0.01025321238270863 0 0 -0.004022462488834827 0 -0.01161956529087448 
0.007651621671150462 0.1030313910974306 0.005691589976073539 0.005936659587811423 -0.1221111281992873 -0.04155699476298412 
0 0 0 0 0 0 
-0.0002450810200056112 0 -0.001463555012908561 -0.002820627131585597 0.003626578744761597 -0.002782007286011164 
-0.009079335205153563 -0.006287559402968459 0 -0.0004148263845059736 0 0.01242363466304217 
0 0 0 0 0 0 
0 0 0 0 0 0 
0 0 0 0 0 0 
-0.006876001347503033 0 0 0 -0.0007422697287687265 0.01041011945369177 
-0.0294843189174746 -0.01479487783863869 0.05286413038766407 -0.01393341017554204 -0.05347175088491049 -0.000331585414082034 
0 0 0 0 0 0 
0 0 0 0 0 0 
0 0 0 0 0 0 
-3.794707603699266e-19 -0.005039778605547929 0.00489297015792648 -0.000463776977404712 -0.002120528970001364 0.01094439605211409 
0 0 0 0 0 0 
0 0 0 0 0 0 
0.003988259084646372 0 0 0 0 0 
-0.001821519313973443 0.02056395417726192 -0.03477377697954347 -0.02712229827007733 -0.01688999016366941 -0.02901910394381196 
0 0 0 0 0 0 
0 0 0 0 0 0 
0 0 0 0 0 0 
0.007212552752752956 -0.00109603004794525 0 0 -0.003298431396873729 -0.0003277037813076835 
0 0 0 0 0 0 
0 0 0 0 0 0 
0 0 0 0 0 0 
-0.01227317816723269 -0.02077838473692368 0.002765747543700051 0.02801514216755268 -0.01109131799939219 -0.001376488683290543 
0 0 0 0 0 0 
0 0 0 0 0 0 
0 0 0 0 0 0 
0 0 0 0 0 0 
0 0 0 0 0 0 
0 0 0 0 0 0 
-0.002377353879523865 -0.002312929283166511 0 -0.004390523821019645 -0.001119767312074925 0.0100203744798299 
0.002054208304178931 -0.01495404904187221 -0.003837787986777912 -0.002233663699143289 -0.05360381695488919 0.02388658537863071 
-0.0009923419174179293 -0.01021290375740492 0 0 0.01473879457062792 -0.0006320948466729815 
0 0 0 0 0 0 
0 0 0 0 0 0 
0 0.01023079934468431 0 -0.00207989218885418 0 -0.01071596648035046 
0 0 0 0 0 0 
0 0 0 0 0 0 
-0.006460712717839632 -0.01155054409899407 0 0 0 0.01160091547961676 
0.01194198690354399 -0.01921581754724081 0.01058434266650981 -0.008024640229706453 -0.03751881102487545 -0.003184996126699323 
0 0 0 0 0 0 
0 0 0 0 0 0 
0 0 0 0 0 0 
0 0 0 0 0 0 
0 0 0 0 0 0 
0 0 0 0 0 0 
-0.01584453174282542 -0.007489114136934095 0 -0.00303884001026412 0 0.0187019099463107 
-0.02520477884416577 -0.09644901670981439 0.03905719334010579 -0.01739903688264559 -0.03182879401103883 0.02151289040785929 
0 0 0 0 0 0 
0 0 0 0 0 0 
0.01927605898627486 -0.0110982836562385 0 -0.004159059602648786 -0.005346870223927958 -0.003489899540435397 
0 0 0 0 0 0 
0.01551521400633937 0 0 -0.003059185972388519 -0.004596584554130921 -0.007907674262008649 
0.004619991564624219 -0.004857328342574347 0 0 0 -0.00159188064484993 
0.01040408861553085 0.0141204147998097 -0.002823051123220998 -0.001465791657556958 -0.00653617072908869 -0.002054561024952586 
-0.06771850924043266 0.02720047239738946 0.01422993030964047 -0.03249343456419768 0.01298648876337933 0.004542796762154367 
0 0 0 0 0 0 
0 0 0 0 0 0 
-0.006884617757982959 -0.003312330653094245 0 -0.002492537958635447 -0.001947935755100268 0.01354702124259872 
-0.001029788535096938 0 0.009317119853954486 -0.008869533582263478 0 0 
0 0 0 0 0 0 
0.00111614626000308 -0.005980126996930938 0 0 0 0 
-0.007467198331034246 0 0 0 0 0.009222338671754832 
-0.01424941779130412 0.02936569027207776 0.01042852255367564 -0.006558360130371584 -0.0243104218228798 -0.0139842407193569 
0 0 0 0 0 0 
0 0 0 0 0 0 
0 0 0 0 0 0 
-0.006190698958791326 -0.001653188663652237 -0.0001658779070798908 -0.004902792736567827 0.01702105591657495 -0.00952290847479585 
0 0 0 0 0 0 
0.00344844459235888 -0.006868877292363403 0 -0.002682219575465111 0.01099401001364575 -0.004922983656291257 
0 0 0 0 0 0 
-0.01134926275425048 0.02645183489002079 0.05535612234361936 -0.1127909075332846 0.02092317389474904 -0.0294668012440164 
0 0 0 0 0 0 
0 0 0 0 0 0 
0 -0.000197927674548054 0 -0.002623809635449518 0 0.009627066038819129 
0.005632809708249318 -0.005036405818229421 0 0 -0.001286041231642897 0 
0 0 0 0 0 0 
0.0195460882196794 -0.01128802072377802 -7.34454588158316e-05 -0.004649028882853054 -0.004456083733815691 0.002397417443018133 
-0.004220923512312927 -0.01062057171144028 0.02035263758529062 -0.001368897692593945 -0.002812865220295444 -0.001591880644849931 
0.00995075831635055 0.0593687369442561 0.02027913751919531 -0.07332291571608153 -0.01661847864524917 -0.02978118274543125 
0 0 0 0 0 0 
0 0 0 0 0 0 
0.03701964816809057 -0.004575331446266347 0 -0.002230316779157684 -0.00214531469307823 -0.0122647191639151 
0 -0.002221283238156277 0.00489297015792648 -0.000463776977404712 0 0 
0 0 0 0 0 0 
0 0 0 0 0 0 
-0.01108229998600792 -0.003528109530799996 0.02035263758529062 -0.001368897692593945 -0.002812865220295444 0 
-0.05570961199191952 0.01068833896268221 -0.006297846182559531 0.004226338778569598 5.604406932824214e-05 0.0203349257179505 
0.008873708788238495 -0.002525488685022774 0 0 0 -0.004570348520391267 
0 0 0 0 0 0 
-0.008041410618619956 -0.01184818109393061 -0.006254940305615182 -0.006631512792340267 0.01069701620735578 0.01422413164461038 
-0.01633663692162284 -0.002541482236586152 0 -0.007368574138279092 0.0106968100685625 0.005000227330587454 
0 0 0 0 0 0 
0 0 0 0 0 0 
-0.004242598727228084 -0.006047966078829777 0 -0.0004750655553575439 -0.0008924696127484667 0.01242843044882774 
-0.05544482318858263 -0.001012549000169196 0.04691885068962105 -0.02160302159754018 -0.01525952579000013 0.01501202228842907 
0 0 0 0 0 0 
-0.0009508903329532274 0.007703671994535615 0 -0.003899934707716898 0 -0.002866575208057116 
0 0 0 0 0 0 
0 0 0.006748135383815196 -0.009832304524388899 0 0 
0 0 0 0 0 0 
-0.004838758216350333 -0.002480240120101532 0 -0.0002349279354615003 -0.004927195205160735 0.009931597330745402 
0 0 0 0 0 0 
-0.03065113728461501 -0.1022499872114438 0.01937039884377575 0.007972701240950798 0.009368400161493175 0.03973737215983277 
0 0 0 0 0 0 
0 0 0 0 0 0 
0 0 0 0 0 0 
0 0 0 0 0 0 
0 0 0 0 0 0 
0.01029082385915544 -0.009910931237624867 0 -0.002063268919058104 -0.001828893075108468 -0.003489899540435397 
0 0 0 0 0 0 
0.01204382899242176 -0.02116177099619486 -0.01353159308423553 0.02757908574429716 -0.02454635925330324 -0.03741200062745136 
-0.0062092222474528 0.002325588821086477 0 -0.003746110489675659 -0.004221611885796025 0.01319212262889201 
-0.00175564378197164 0.009321522021858073 -0.001507801573639069 -0.005605190982670753 0 -0.004809431397550848 
0 0 0 0 0 0 
0 0.001086803662806021 0 0 0 0 
0 0 0 0 0 0 
0 0 0 0 0 0 
-0.01412617632659202 -0.01155054409899407 0 -0.00303884001026412 0 0.02281445011566072 
0.03610967304409605 -0.04970240702790489 0.02077712761529425 0.01774272485836546 -0.01132021632243666 -0.0427630031515387 
0 0 0 0 0 0 
0 0.01004966277821053 -0.00203669746780472 -0.003414808991593005 0 -0.005898120144706572 
0 0 0 0 0 0 
0 0 0 0 0 0 
0 0 0 0 0 0 
0 0 0 0 0 0 
0 0 0 0 0 0 
0.01431764894657645 -0.06567924952748246 0.03678847118107614 0.00943620518363371 -0.002066166600816862 -0.003554700707535468 
0 0 0 0 0 0 
0.008552791366394735 0 0 -0.003106489657110174 0 0 
0.01182737079342831 -0.009066586060973339 0 -0.001465791657556958 -0.001131891752142751 0 
0.008985235127119445 -0.001187352418613634 0 -0.002095790683590677 -0.003517977148819489 0 
0 0 0 0 0 0 
-0.01602553269037166 0 0 0 0 0.0107026339045779 
0 0 0 0 0 0 
0.04003119533440852 -0.08275971167106402 0.0171811594779379 0.02294368955617131 0.0171398595515186 -0.0504242223321777 
0.004406605142380398 0 0 -0.003529704660268953 -0.001991327261058578 0 
0.01182737079342831 -0.009066586060973339 0 -0.001465791657556958 -0.001131891752142751 0 
-0.005396570853094293 -0.0076489894497169 0 -0.0005807901522075894 0 0.01091300394169022 
0 0 0 0 0 0 
0 0 0 0 0 0 
0.00111614626000308 -0.005980126996930938 0 0 0 0 
0 0 0 0 0 0 
-0.01955240782899812 -0.01920519853627178 0.04186862301062653 -0.05586987165320607 -0.03736007964061372 0.05174223548799735 
-0.03645041394975545 -0.004471684031043891 -0.006201043531551137 -0.004902792736567827 0.02839704447111989 0.01458223470555619 
0.002701801035141118 0 0 0 -0.0008924696127484667 -0.003318757893749233 
0 0 0 0 0 0 
0 -0.000197927674548054 0 -0.002623809635449518 0 0.009627066038819129 
0 0 0 0 0 0 
-0.01634820449397723 -0.02487991410662418 0 -0.003195172600568924 -0.003948095315182404 0.0412047929413908 
-0.005532785452409846 -0.009168065545887408 0 0 0 0.01734173203663312 
0.05490292619252998 -0.03275807874972738 -0.02030879881904475 -0.01589966181414878 0.01442728565118888 0.01163998311388903 
0 -0.006018007355618877 0 -0.004074133170262869 0.0104444437969093 -0.0005174795555128302 
0 0 0 0 0 0 
0.006180829607945225 -0.02096231594319215 0 -0.009012681915897408 -0.002429463498846464 0.01518284254404673 
0.006102113730073383 -0.005624278731513787 -0.0007448251446296756 -0.002207019848822975 0.008826394434063538 -0.01387596198218529 
0 0 0 0 0 0 
0 0 0 0 0 0 
-0.0009923419174179293 -0.01021290375740492 0 0 0.01473879457062792 -0.0006320948466729815 
0.0586524214406169 -0.03766465410219281 0.02174888359282226 -0.03778503235563538 -0.03065836276058904 0.01130786812658392 
0 0.01528075089692496 -0.0003030708176038273 -0.006156272832276816 0 -0.01297154135922332 
0 0 0 0 0 0 
-1.319583158365315e-05 -0.008680306067976339 0 -0.006428330065140764 0.006772398127849727 0.01230761099308091 
0 0 0 0 0 0 
0 0 0 0 0 0 
0 0 0 0 0 0 
0.03144479562121866 -0.01749587407347697 0 -0.01575566110199823 0.008867916993454031 -0.007360572937296048 
-0.03412012004513751 -0.01269519837043131 0.03064210526023736 -0.02908885882244934 0.0175113303051348 0.007007254547721251 
-0.0008336326046032594 -0.006865391680792539 0 -0.0009742452674191984 -0.0008697895052874788 0.01180718798872173 
-0.006190698958791326 0 0 0 0.00515109678943336 -0.00393840845648311 
-0.0001073329414578638 5.421010862427522e-20 -0.001283035591298632 0 0.008843009763612188 -0.0008916521163249533 
-0.005396570853094293 -0.007648989449716902 0.006748135383815196 -0.01041309467659649 5.421010862427522e-20 0.01091300394169022 
0 0 0 0 0 0 
-0.00280566548911993 -0.002235133838065935 0 -2.027264791262813e-05 0 0.01236587048961144 
-0.01795830133351095 -0.003528109530799996 0.02035263758529062 -0.001368897692593945 -0.00355513494906417 0.01041011945369177 
-0.08393020923811041 0.004643993210970847 0.009960706843538735 -0.02444424763887761 0.03820890121497422 0.02064907123545974 
0 0 0 0 0 0 
0.01182737079342831 -0.009066586060973339 0 -0.001465791657556958 -0.001131891752142751 0 
0.008161903063572399 0 0 0 0 0 
-0.02435652987262754 -0.007282651981449974 0 -0.002378408719463205 0 0.0273407197127678 
0 0 0 0 0 0 
0.0199308672744114 -0.0003996271214613455 0 0 -0.004880538781352559 -0.01320839610888118 
0.01715974585096568 0 0 -0.003285777724701844 -0.006780729915589871 -0.004290580326995555 
-0.003398889268993676 -0.05800756682742274 0.0842569152330634 -0.0443502261230305 0.01801142380605694 -0.03397611743528422 
0 0 0 0 0 0 
0 0 0 0 0 0 
0 0 0 0 0 0 
0 0 0 0 0 0 
0 0 0 0 0 0 
-0.006517918980755958 0 0 -0.004702942098350798 0 0.01340280783405881 
0 0 0 0 0 0 
-0.004019579524759773 -0.01447897523152382 0.05653621875523541 -0.03016925739917457 -0.0401038429009163 0.00432631868942466 
0 0 0 0 0 0 
0 0 0 0 0 0 
0 0 0 0 0 0 
0 0 0 0 0 0 
0 0 0 0 0 0 
0 0 0 0 0 0 
0.02902491241894235 -0.003479301398321099 2.710505431213761e-20 -0.003552224637711317 0 -0.007223032095129651 
0.09111636696437321 -0.07226811265389249 0.01178555945774947 0.02207341007504499 0.02545961418660355 -0.07496245131281058 
0 0 0 0 0 0 
0 0 0 0 0 0 
0 0 0 0 0 0 
0 0 0 0 0 0 
0 0 0 0 0 0 
0 0 0 0 0 0 
0 0.01130630631331226 0 -0.004972311456140836 0 -0.005321854368713307 
-0.03365720321346231 -0.08687539133082314 0.02308907983622704 0.01071261171882547 0.01870577699826694 0.02961753467350189 
0 0 0 0 0 0 
0.004322025800847011 -0.00109603004794525 0 0 0 -0.0003277037813076835 
-0.004838758216350333 -0.002480240120101532 0 -0.0002349279354615003 -0.004927195205160735 0.009931597330745402 
0 0 0 0 0 0 
0 0 0 0 0 0 
0 0 0 0 0 0 
0 0 0 0 0 0 
-0.004943346027637719 -0.0372910066127207 0.05347904550947787 -0.02457339748209338 0.008773099014451571 -0.0349322803263719 
0 0 0 0 0 0 
0 0 0 0 0 0 
0.01332910889457926 -0.002235133838065936 0 0 -0.004880538781352558 -0.005811414844483548 
0 0 0 0 0 0 
0 0 0 0 0 0 
-0.002377353879523865 -0.002312929283166511 0 -0.004390523821019645 -0.001119767312074925 0.0100203744798299 
0.005347426246038105 -0.003528109530799996 0.02035263758529063 -0.001368897692593945 -0.01095730552200899 -0.004110876055480788 
-0.1188629268692497 0.00161600951238979 0.03710184779784697 -0.03249141647068523 0.03288183944460901 0.0469317615222227 
-0.009429736711163459 -0.007957483682247624 0 -0.0009742452674191986 -0.0008697895052874789 0.02385691045436025 
0.008540549707275302 -0.0016333507422812 0 -0.002495952594409902 0 -0.005732558650588491 
0.004779435322390278 -0.008497719907779786 0 0 -0.002444628433187846 0.01352713040582022 
0 0 0.01588640645822818 -0.009299175057908856 -0.002351616768948536 0 
0 0 0 0 0 0 
0.005632809708249318 -0.005036405818229421 0 0 -0.001286041231642897 0 
0.00615048937221541 -0.000684938989030216 0.0185493219190464 -0.0108433356264051 -0.001657611928229045 -0.00487265948049021 
0.04622812127705322 -0.02745228754032566 0.04706748315298229 -0.02697234116460855 -0.02184925215556135 0.01877587607579635 
0 0 0 0 0 0 
-0.02078580699611601 -0.006018007355618877 -0.000349801225944359 -0.004074133170262869 -0.00607813468224859 0.02363998923667721 
-1.319583158365326e-05 -0.004986793130970087 0 -0.0100507937137442 0.02169082008220826 -0.00879365705315191 
0 0 0.01211423091042086 -0.004451751784025467 -0.01331175516003054 0 
0 0 0 0 0 0 
0 0 0 0 0 0 
0.01535822160261354 0 -0.00793725539295821 0 -0.0005091922968663568 0 
0.006360651773596287 0.003339029686833638 0.05895264737131026 -0.008214657370011169 -0.02210887497071523 0.0188505157495433 
0 0 0 0 0 0 
0.005041247844541148 0 0 -0.001725912150093066 -0.0003060947325468205 -0.003034150611272571 
0.01352209054602356 -0.02006960930005328 0 -0.00352906057661506 -0.002960784827251219 0.0085598229252031 
-0.005532785452409846 -0.009168065545887408 0 0 0 0.01734173203663312 
0 0 0 0 0 0 
0 0 0 0 0 0 
0.01715974585096568 0 0 -0.003285777724701844 -0.006780729915589871 -0.004290580326995555 
-0.04780547014875629 -0.02954770050738854 0.03413470278005601 -0.0646767122952415 0.01138058960096671 0.003050738359952529 
0 0 0 0 0 0 
-0.01442632238859252 -0.00486338291185833 0 -0.004564160970910116 -0.005645731953200151 0.02377593464576547 
-0.006944399762369205 -0.006047966078829777 0 -0.0004750655553575439 0 0.01574718834257697 
-0.01988004209845332 -0.006261712460768348 -0.006473203451229147 0 0.02942325326087403 0.01654240483787841 
0 0 0 0 0 0 
0.01159146121805207 -0.00334961803663886 0 0 0 -0.004928344518741916 
-0.011713464923438 -0.01578037188922975 0 -0.002378408719463205 -0.002444628433187846 0.03016521621401012 
-0.05767014224709964 -0.06779950082051447 0.06430716527343412 0.01063685807493163 0.02783642477492591 0.02038536537328836 
0.01029082385915544 -0.009910931237624867 0 -0.002063268919058104 -0.001828893075108468 -0.003489899540435397 
-0.007994866945522717 -0.01092395172353786 0 -0.005293648473361152 -0.01090988251721309 0.0315809814170363 
0 0 0 0 0 0 
0.008161903063572399 0 0 0 0 0 
0 0 0 0 0 0 
0 0 0 0 0 0 
0 0 0 0 0 0 
-0.01192784165898165 -0.08875592595651885 0.102323184942285 0.002721499951087607 0.0377953315666921 -0.04879464814091213 
-0.00237183707180422 0 0 0 0 0 
0 0 0 0 0 0 
0 0 0 0 0 0 
0 0 0 0 0 0 
0 0 0 0 0 0 
0 0 0 0 0 0 
0.01763005001875383 -0.007816419835664326 0 -0.005545354886153389 0 0 
0.03572330916468863 -0.06149332586854495 0.01490956682323081 -0.007502270045349635 -0.0009671313453830433 -0.01348746087124612 
0 0 0 0 0 0 
0 0 0 0 0 0 
0 0 0 0 0 0 
0 0 0 0 0 0 
0 0 0 0 0 0 
0 0 0 0 0 0 
0.01763005001875383 -0.007816419835664326 0 -0.005545354886153389 0 0 
-0.03662343678050003 -0.09429775835409757 0.004131439822653954 0.003194186933284929 0.06031538521643783 0.0318476294159541 
0 0 0 0 0 0 
0 0 0 0 0 0 
0 0 0 0 0 0 
0 0 0 0 0 0 
0 0 0 0 0 0 
0.009120166140767371 0 0 -0.007961739472046371 -0.004058908590107924 5.421010862427522e-20 
-0.01234037188068424 -0.001254162747682578 0 -0.007085800828411798 0 0.02157914370821424 
-0.04614327519503784 -0.0463593972377384 0.04398098684541565 -0.01447968975905621 0.03387363315619855 0.003073388399482943 
0 0 0 0 0 0 
-0.001963016934399551 -0.007196976503872281 0 -0.002111151863820562 -0.003444847522475823 0.01599682452907505 
0 0 0 0 0 0 
0.008873708788238495 -0.002525488685022774 0 0 0 -0.004570348520391267 
0 0 0 0 0 0 
0 0 0 0 0 0 
-0.01234037188068424 -0.001254162747682578 0 -0.007085800828411798 0 0.02157914370821424 
-0.04215375238053233 -0.08294416105115253 0.05452844480759279 -0.0273529327261916 0.06768107098673953 -0.02568313199987048 
0.005675570158941967 0 -0.007800870028489614 0 0 0 
-0.003669056126781714 -0.00423843065416638 0 -0.0008260539198789399 -0.003807524857394527 0.01815967959821491 
-0.004109994251210215 -0.01105138470556728 0 -0.006949412996839309 -0.000600570423737998 0.01867274208448213 
-0.004128172511948999 0.009892030088105696 -0.0005623676446630864 0 0 -0.001794548455854774 
0 0 0 0 0 0 
0.01174244792444959 0 0 0 -0.007352077193215133 -0.007057687155873639 
0.009120166140767371 0 0 -0.007961739472046371 -0.004058908590107924 5.421010862427522e-20 
-0.07784336400104205 0.000849752830922409 0.007573105926163724 -0.02017552960099928 0.06132005020531428 -0.02178596824391238 
-0.004128172511948999 0.009892030088105696 -0.0005623676446630864 0 0 -0.001794548455854774 
0 0 0 0 0 0 
-0.02132913490847794 0.006611579993080525 -0.0006730938856774799 -0.003899934707716898 -2.710505431213761e-19 0.02202703942671887 
-0.01521561494023883 -0.01059498263454422 0 -0.004870946678098651 -0.001947935755100268 0.03018510705078863 
0 0 0 0 0 0 
0 0 0 0 0 0 
0.02631523601784945 -0.006597942618483857 0 -0.01211365994553332 -0.004495636689772164 0.004654764795297929 
-0.08520838661783491 0.0218911415825518 0.06808017194338607 -0.1197656618695329 0.025598176065294 0.05759133929435561 
0.00823482180855601 -0.002402334876497141 0.004651222457328246 -0.001321907858553635 -0.002672199412654517 0.0007032277975861714 
0 0 0 0 0 0 
0 -0.002818495367391652 0 0 -0.002120528970001364 0.01094439605211409 
0.01768160397431711 -2.168404344971009e-19 0 0 -0.002870409709569044 -0.01562891908816347 
0 0 0 0 0 0 
0.006393012477700896 -0.00153719323033983 0 0 -0.00271492370629128 -0.001655091443449118 
-0.00449616054677184 0.02866776954699343 -0.004012890813696451 -0.004666494336026596 0 -0.01177467562750815 
-0.005283429738639656 0.02654758005851602 0.04076401923281368 -0.07275759624972858 -0.02167404918754921 0.03518177093029208 
0.003432023434191105 0 0 -0.0001275763651549788 -0.00218770343898387 -0.007625840794247225 
-0.0006254749528702205 0 -0.007207802832267464 -0.002986288550709813 0.01159301655076052 0 
0.009600861579830505 -0.002658658700744326 0 -0.002059024315984159 -0.001760898245583323 -0.0005157817639746364 
0.02553262777274826 -0.008762532038755249 -0.005191393978100906 0 -0.0001959830545991511 -4.336808689942018e-19 
0 0 0 0 0 0 
0.01715856901391549 0 0 -0.005304301727247643 0 -0.00487265948049021 
0.008169275807814146 0.01900997830784787 0 -0.01683398563590412 -0.004058908590107924 -0.008188429576770424 
-0.03124122903356396 0.02492595629543871 0.02026548783263554 -0.06051848276870668 0.06828169120551167 -0.0403004183022329 
-0.005532785452409846 -0.0133627364461258 -0.0001658779070798908 -0.01227136687484692 0.02256676919570407 0.007886558621459729 
0 0 0 0 0 0 
0 0 0 0 0 0 
-0.003510156405718384 0.007392231145259618 0 -0.0003602121353318807 0 -4.954529353818761e-05 
0 0 0 0 0 0 
-0.002579961660319062 0.009518867365576033 -0.001899415628687783 -0.0001485928151487076 0 -0.003191531157955582 
0.01807876472782615 -0.001493376312352563 -0.007894924172496426 -0.004649028882853054 0 -0.001174512296699063 
-0.02658164538270245 -0.02849444524264112 0.004459495317532675 -0.001715727765303533 0.06041642657609251 0.00442565923175988 
0 0 0 0 0 0 
0.01312287983310791 -0.009225052635242707 -0.008653612031799627 -0.001725912150093066 -0.0003060947325468209 -0.004626031256122501 
0.01159146121805207 -0.00334961803663886 0 0 0 -0.004928344518741916 
-0.009079335205153563 -0.006287559402968459 0 -0.0004148263845059736 0 0.01242363466304217 
0 0 0 0 0 0 
0 0 0.006389226836429574 -0.001381921478712154 -0.001822597954487851 -0.0001098609306361622 
-0.00783078583572872 0 0 0 0 0.006914795852297406 
-0.03265691555407734 -0.05340605550807131 0.0009192548953942034 0.02316195233635104 0.0596520425980707 -0.0240790376213529 
-0.004674908271931851 -0.001254162747682578 0 -0.004046960818147675 0 0.0103656090721703 
0 0 0 0 0 0 
0 0 0 0 0 0 
0.01236204283629082 -0.008768849215657791 0 0 0 -0.007141930168764116 
0 0 0 0 0 0 
0.01510772336513514 -0.003479301398321099 0 -0.002230316779157683 0 -0.0007505915076095298 
-0.01463978085191267 -0.01903965823592816 0 0 0 0.01908929078988352 
-0.01661936451586089 -0.07172242068989455 -0.01075438896792813 0.03067303987360922 0.05404217608232329 -0.02106191052865161 
0 0 0 0 0 0 
0 0 0 0 0 0 
0 0 0 0 0 0 
0 0 0 0 0 0 
0 0 0 0 0 0 
0 0 0 0 0 0 
-0.008179068134073037 -0.007489114136934095 0 0 0 0.007488375310266752 
-0.01392952074556441 0.001059691953863355 0.003373551719350121 0.01492649093761565 -0.0350727005042888 -0.008533450784032448 
0 0 0 0 0 0 
0 0 0 0 0 0 
0 0 0 0 0 0 
0 0 0 0 0 0 
0 0 0 0 0 0 
0 0 0 0 0 0 
-0.004883895544716658 -0.01280470684667665 -2.168404344971009e-19 -0.008407708686965439 0 0.02670761860031093 
-0.01994412722924591 -0.06324031500291165 0.03110795819423599 -0.0052064657050557 0.001508711724653359 0.04229898272144899 
0.004619991564624219 -0.004857328342574347 0 0 0 -0.00159188064484993 
0 0 0 0 0 0 
0 0 0 0 0 0 
0 0 0 0 0 0 
0 0 0 0 0 0 
0 0 0 0 0 0 
-0.007665463608752387 0 0 -0.00303884001026412 0 0.01121353463604396 
-0.0539938131668258 0.0368404092564792 -0.02593849647546339 -0.008536578853752865 0.06586037897665978 -0.02417658621802792 
0 0 0 0 0 0 
-0.006884617757982959 -0.003312330653094245 0 -0.002492537958635447 -0.001947935755100268 0.01354702124259872 
0 0 0 0 0 0 
0.008161903063572399 -0.0006314056499009249 0 -0.005424920150175223 -0.00662859843592995 0.01631851522522908 
0 0 0 0 0 0 
0 0 0 0 0 0 
0.008977128796219841 0 0 -0.004649028882853054 0 -0.001174512296699063 
-0.05561867279515929 -0.002103595900271853 0.02830984422025345 -0.01036054081539077 0.01648810937535523 0.03609783061051405 
0 0 0 0 0 0 
-0.02127444562648601 0 0 0 -0.004880538781352558 0.01376211978754246 
0 0 0 0 0 0 
0 0 0 0 0 0 
0 0 0 0 0 0 
-0.002377353879523865 -0.002312929283166511 0 -0.004390523821019645 -0.001119767312074925 0.0100203744798299 
0 0 0 0 0 0 
-0.05510253757771914 0.03226931594571487 0.05877285453726872 -0.02063001025650086 0.007857575210264827 -0.06000196780268412 
0 0 0 0 0 0 
-0.008581989926643326 -0.01184818109393061 -0.000349801225944359 -0.006631512792340267 -0.01691606913618595 0.0276789665322225 
0 0 0 0 0 0 
0 0 0 0 0 0 
0 0 0 0 0 0 
-0.0005484812105587961 -0.01004741943024915 -7.34454588158316e-05 0 -0.005108772493591514 0.01617006286366168 
-0.006944399762369205 -0.006047966078829777 0 -0.0004750655553575439 0 0.01574718834257697 
-0.06155169971835391 0.01780428541917306 0.0204881023781616 -0.04387782077983167 0.01590482325765278 0.006169342464558325 
0 0 0 0 0 0 
-0.008872081795598015 -0.01045326599839917 -0.003389671975400449 -0.000341698325748174 -0.01826794687620991 0.02216675262153019 
0 0 0 0 0 0 
0 0 0.01588640645822818 -0.009299175057908856 -0.002351616768948536 0 
0 0 0 0 0 0 
0 0 0 0 0 0 
0 0 0 0 0 0 
-0.03016568131470603 -0.0006993948307084726 0.03253908466886853 -0.0108817971899547 -0.01803149663396427 -0.001774817062837393 
0 -0.000433477975352872 0 -0.002801110514725702 -0.00662859843592995 0.006691449186409943 
0 0 0 0 0 0 
-0.008798831489019934 -0.00059474170717003 0 0 0.01289843192404752 0 
-0.005428459320246293 -0.003694686554129181 -0.002976340681075515 0 0.01762531455053226 0 
0 0 0 0 0 0 
-0.006058611017457831 0 -0.000866690419924714 0 0 0.01084273747730808 
-0.01108229998600792 -0.003528109530799996 0.02035263758529062 -0.001368897692593945 -0.002812865220295444 0 
-0.05793075679852655 0.01642117531045787 -0.02781227900308996 -0.0169627390402051 0.03572960423040894 0.02352308985322586 
0.003432023434191105 0 0 -0.0001275763651549788 -0.00218770343898387 -0.007625840794247225 
0 0 0 0 0 0 
0 0 0 0 0 0 
0.006315193907252076 -0.002658658700744325 0.009317119853954486 -0.01033870784809155 -0.0003828796996366425 -0.0005157817639746365 
0 0 0 0 0 0 
0.007466400392899824 -0.004418429279840663 0 0 0 -0.006608018272004241 
0.01127578684102071 0 0 -0.008724357105548768 -0.00296140593380112 -0.002146268789129017 
-0.03193817167800667 -0.03403264440798338 -0.0143532550709266 -0.008976351455192976 0.01740536296516787 0.04337671754638061 
0 0 0 0 0 0 
0 0 0 0 0 0 
0 0 0 0 0 0 
0.00111614626000308 -0.005980126996930938 0 0 0 0 
0 0 0 0 0 0 
0 0 0 0 0 0 
-0.01463978085191267 -0.01903965823592816 0 0 0 0.01908929078988352 
-0.04527822615391455 0.02710087617374246 -0.01247208125520381 0.0008835503066385731 -0.0489989989107347 -0.005256863401754133 
0 0 0 0 0 0 
0.01504687460018508 0.01171530875593211 -0.003371103215690007 -0.01009721290320924 0.006452573788206147 -0.01715345826834914 
0.008843143288902931 -0.0003996271214613455 0 0 0 -0.00739698126439764 
0 0 0 0 0 0 
0 0 0 0 0 0 
0 0 0 0 0 0 
0.001785518275928406 -0.01530553397259842 0 -0.00858419489641751 0 0.0187019099463107 
0.007267634808490489 0.04814794129928399 -0.01293084409954585 -0.01319952764912026 -3.449388977370985e-05 -0.02277617140073877 
0 0 0 0 0 0 
0 0 0 0 0 0 
0 0 0 0 0 0 
0 0 0 0 0 0 
0 0 0 0 0 0 
0 0 0 0 0 0 
0.007926272123736627 -0.006297623346948513 0 -0.007264289205698542 0 0.0103656090721703 
0.005372721691478168 0.02695973259937265 -0.03846407577585171 -0.02839978908736708 0.04998023424652204 -0.05809667076874256 
-0.001110249187539755 -0.007178143095090748 0 5.421010862427522e-20 -0.002333348326182885 0.01134251098802766 
0 0 0 0 0 0 
0 0 0 0 0 0 
-0.005632087956632007 -0.007546452947455272 0.02493191888414041 -0.0002779603731186849 -0.001970006464631244 -0.005642571589883036 
0 0 0 0 0 0 
0 0 0 0 0 0 
-0.007665463608752387 -0.006018007355618877 0 -0.007112973180526984 0.0104444437969093 0.01069605508053113 
-0.02927544242627485 -0.0665483460269187 -0.01262760719837852 0.05551566227328053 -0.008370511049703502 0.03317324501309097 
0 0 0 0 0 0 
-0.01602553269037166 0 0 0 0 0.0107026339045779 
-0.0008336326046032594 -0.006865391680792539 0 -0.0009742452674191984 -0.0008697895052874788 0.01180718798872173 
-0.007467198331034246 0 0 0 0 0.009222338671754832 
0 0 0 0 0 0 
0 0 0 0 0 0 
0 0 0 0 0 0 
0.006191848067180714 0.04427879422001621 -0.01029060107534362 0.004225691747944234 -0.002670798884997484 -0.05304344692908329 
0 -0.002818495367391652 0 0 -0.002120528970001364 0.01094439605211409 
0 -0.002541482236586152 0 -0.007368574138279092 0.0106968100685625 -0.003870673396860654 
0 0 0 0 0 0 
0 0 0 0 0 0 
0 0 0 0 0 0 
0.004322025800847011 -0.00109603004794525 0 0 0 -0.0003277037813076835 
0 0 0 0 0 0 
-0.02602237559865856 -0.01246698043859399 -0.009442620684176603 -0.009087207407361891 0.04189732460772567 -0.005995104749164979 
0 0 0 0 0 0 
0 0 0 0 0 0 
-0.004674908271931851 -0.001254162747682578 0 -0.004046960818147675 0 0.0103656090721703 
0 0 0 0 0 0 
0 0 0 0 0 0 
-0.003246779700648326 -0.0016333507422812 -7.34454588158316e-05 0 0 0.002385782116847154 
0.01715856901391549 0 0 -0.005304301727247643 0 -0.00487265948049021 
-0.01752860170696539 0.02320514454252114 -0.01723695219426841 0.02200391656900357 0.02651254616403045 -0.05776892854337135 
-0.006190698958791326 0 0 0 0.00515109678943336 -0.00393840845648311 
0.004619991564624219 -0.004857328342574347 0 0 0 -0.00159188064484993 
-0.00403517489684314 0 0 -0.0001275763651549788 -0.00218770343898387 0.001596497877507607 
0 0 0 0 0 0 
0 0 0 0 0 0 
0 0 0 0 0 0 
-0.007665463608752387 -0.002541482236586153 0 -0.01040741414854321 0.0106968100685625 0.007342861239183307 
-0.03382138241799007 0.0118905381318446 0.004892244538660684 0.01447550715627383 0.02037534858892555 -0.05518876284039995 
-0.008798831489019934 -0.00059474170717003 0 0 0.01289843192404752 0 
0.002995917167228445 -0.01021290375740492 0 0 0.01473879457062792 -0.0006320948466729815 
-0.01174650835890885 0 -7.34454588158316e-05 0 -0.0007422697287687265 0.01279590157053892 
0 0 0 0 0 0 
0 0 0 0 0 0 
0.02610618516412313 -0.002235133838065936 -0.00128838637423562 0 -0.003771280109286903 -0.005492687526281658 
-0.007467198331034246 0 0 0 0 0.009222338671754832 
-0.046781668373954 -0.02556653666163904 -0.01276977564743749 0.0332315763194909 0.02375165840959817 -0.03330901445230108 
0 0 0 0 0 0 
0 0 0 0 0 0 
0 0 0 0 0 0 
0.008977128796219841 0 0 -0.004649028882853054 0 -0.001174512296699063 
0 0 0 0 0 0 
0.002459972538443969 0 0 0 -0.001977940096820579 0 
-0.01505681682439983 -0.01264263610044917 0 0 0 0.02365063794525527 
-0.07584159137898307 0.02833490276829996 0.01996021602553566 -0.0205588659760483 0.01597212637743606 0.007940032232899023 
0 0 0 0 0 0 
0 0 0 0 0 0 
0 0 0 0 0 0 
0 0 0 0 0 0 
0 0 0 0 0 0 
0.0008118693951286271 0.006296201097314364 0 -0.0003602121353318807 -1.084202172485504e-19 -0.0003772490748458711 
0.006464134418549646 -0.021763447856399 -2.168404344971009e-19 -0.001321907858553635 0.01473879457062792 0.00449638004542366 
-0.003134639354102031 0.06502888545225984 -0.02025211710781245 -0.02267011485379542 -0.01441674547571989 -0.03824118525493696 
0 0 0 0 0 0 
0.00111614626000308 -0.005980126996930938 0 0 0 0 
0 0 0 0 0 0 
0 0 0 0 0 0 
0 0 0 0 0 0 
0 0 0 0 0 0 
0 0 0 0 0 0 
-0.02466326947189566 0.02969134698177699 -0.01537623920459922 -0.03119843925471779 0.005911125881327993 0.01732154537473775 
0 -0.006018007355618877 0 -0.004074133170262869 0.0104444437969093 -0.0005174795555128302 
0 0 0 0 0 0 
0 -0.002541482236586152 0 -0.007368574138279092 0.0106968100685625 -0.003870673396860654 
0 0 0 0 0 0 
0 0 0 0 0 0 
0 0 0 0 0 0 
0.01715856901391549 -0.001653188663652237 -0.0001658779070798908 -0.01020709446381548 0.01186995912714158 -0.01045715949880295 
0.001634979969712939 0.03556277503714055 -0.003440067634342416 -0.06165583953448207 0.01404103232236942 -0.04984174368282208 
0.005578304110776782 -0.001254162747682578 0 -0.008069423306982494 0 -0.001253956218704179 
0 0 0 0 0 0 
-1.319583158365326e-05 -0.002445310894383933 0 -0.002682219575465111 0.01099401001364575 -0.004922983656291258 
0 0 0 0 0 0 
0 0 0 0 0 0 
0 0 0 0 0 0 
0.01236204283629082 -0.008768849215657791 0 0 0 -0.007141930168764116 
-0.04674014746925164 0.008116378377055228 0.03171939892418068 -0.01897108779302181 -0.0293326036350136 -0.007199678870621803 
0.009928519473429724 -0.0122581458014063 0 -0.004046960818147675 0 0.003223678903406185 
0 0 0 0 0 0 
0.008873708788238495 -0.002525488685022774 0 0 0 -0.004570348520391267 
0.008552791366394735 0 0 -0.003106489657110174 0 0 
0 0 0 0 0 0 
0.01510772336513514 -0.003479301398321099 0 -0.002230316779157683 0 -0.0007505915076095298 
-0.005632087956632007 -0.007546452947455272 0.02493191888414041 -0.0002779603731186849 -0.001970006464631244 -0.005642571589883036 
-0.04912429450022048 0.0007339776195643058 0.03119474132765759 0.04935844834313834 -0.05036714450129307 -0.0220774319002572 
0.006393012477700896 -0.00153719323033983 0 0 -0.00271492370629128 -0.001655091443449118 
0 0 0 0 0 0 
0.002353515898226656 -0.008497719907779784 -0.002642806059994055 0 -0.002444628433187847 0.01051850371804463 
0 0 0 0 0 0 
0 0 0 0 0 0 
0.008552791366394735 0 0 -0.003106489657110174 0 0 
0.008873708788238495 -0.005343984052414421 0 0 -0.002120528970001364 0.006374047531722819 
-0.03979980715326158 0.0365172107848545 0.02600052806397414 0.05871053182070646 -0.04025595334084312 -0.08355452207751142 
0 -0.008951389382303904 0 0 -0.005108772493591514 0.01411198452812224 
-0.006884617757982959 -0.006130826020485897 0 -0.002492537958635447 -0.004068464725101628 0.0244914172947128 
-0.003010874240321722 -0.01948134165489528 0 -0.005048378437682069 0.008040423535650772 0.02916945695010574 
0 0 0 0 0 0 
0 0 0 0 0 0 
0 0 0 0 0 0 
0.01715856901391549 0 0 -0.005304301727247643 0 -0.00487265948049021 
-0.08421340349801613 0.04089827531876304 0.03886049595474392 0.04759769017879736 -0.04489430098383221 -0.03269408664659702 
-0.01602553269037166 0 0 0 0 0.0107026339045779 
-0.003382467741182115 -0.01151414294971949 0 -0.002623809635449518 -0.004565157403189207 0.03409859249675348 
-0.01679737363764224 -0.01139670027668785 0 -0.002682219575465111 0.005885237520054239 0.01908812279803037 
0 0 0 0 0 0 
0 0 0 0 0 0 
-0.001110249187539755 -0.007178143095090748 0 0 -0.002333348326182885 0.01134251098802766 
-0.005752616223162256 -0.01021290375740492 -0.000349801225944359 0 -0.001783783908529971 0.01282274004093914 
0.01197065618711602 0.01286745569228862 0.007094139690864665 0.05768927407928458 -0.07915429849626554 -0.04138699870668106 
0 0 0 0 0 0 
0 0 0 0 0 0 
0 0 0 0 0 0 
-0.003477248445398848 0 -0.003389671975400449 0 -0.0143198515610275 0.0130195300495986 
0 0 0 0 0 0 
0 0 0 0 0 0 
0 0 0 0 0 0 
-0.06016554362219865 0.06538930476315383 0.009783960303898925 -0.009395508865725122 0.003144287397049962 -0.0719032616960865 
0 0 0 0 0 0 
0.01236204283629082 -0.008768849215657791 0 0 0 -0.007141930168764116 
-0.002377353879523865 -0.002312929283166511 0 -0.004390523821019645 -0.001119767312074925 0.0100203744798299 
0.01278189462819662 -0.004857328342574346 0.01211423091042086 -0.004451751784025467 -0.01331175516003054 -0.00159188064484993 
0 0 0 0 0 0 
-0.004838758216350333 -0.002480240120101532 0 -0.0002349279354615003 -0.004927195205160735 0.009931597330745402 
-0.006771593705200454 -0.02157654857127209 -0.0001658779070798908 -0.0111600787750692 0.003779598740753579 0.03100129737963098 
-0.01353882101398548 0.04249705279704516 -0.04441762257105362 -0.007710082253103364 -0.006891107113358735 -0.0430377725615786 
0 0 0 0 0 0 
0 0 0 0 0 0 
0 0 0 0 0 0 
0 0 0 0 0 0 
0 0 0 0 0 0 
0 0 0 0 0 0 
0.01024001655112498 -0.002445310894383933 0 -0.006704682064299935 0.01099401001364575 -0.01654254894716574 
-0.01144177307535498 -0.01346858503323035 0.04031393672289121 -0.1075953827094895 -0.01044823343410336 0.0219946578740598 
-0.003446525496904245 -0.01734197257681676 0 -0.004488959554768843 0.00915840256526641 0.01190615510752934 
0 0 -0.003371103215690006 -0.002009147837377039 0.006452573788206147 -0.002765402719148954 
0 0 0 0 0 0 
0 0 0 0 0 0 
0 0 0 0 0 0 
-0.004109994251210215 -0.01105138470556728 0 -0.006949412996839309 -0.000600570423737998 0.01867274208448213 
-0.003682251958365367 -0.006683741548550315 0 -0.003508273495344053 0.007186485156251228 0.01323669594192366 
0.0006824697513783418 0.01990057588895588 -0.009897024325637733 -0.004508782377227128 0.0008608653104785043 -0.003213542355271428 
0.004012152513653738 0.01932353913397946 -0.006351045994378655 -0.004764100154834498 -0.004061839451511535 -0.002176084394054073 
0.01090024787336318 0.02366964187265174 -0.009903122107246943 -0.002989890961594902 -0.003554355975600952 -0.01945388753353009 
0.01545909034579625 0.004525166185024818 -0.00149258558613038 -0.01758135778746924 0.001751419906918204 0.005201787686047828 
0.01756149079142927 0.008479068823594824 0.002181369664428351 -0.01606763250695943 -0.003857067070230593 0.002241203388490041 
0.02582742132042832 0.01376214472956047 -0.004950605872052956 -0.01366335494871038 -0.001876296751926846 -0.01556158186793365 
0.000479449086186443 -0.001599836031646586 -0.01164919269758774 -0.007026660744993057 -0.0005304222673590136 0.020834308330583 
-0.003471696235388501 0.001755520309318225 -0.01042135171030273 -0.004171724707930043 -0.001227803198883119 0.01677876496001226 
0.005982146687108255 0.00962884656591778 -0.01077677357111063 -0.001546185806474407 0.001251808425822209 -0.008728689689404712 
-0.01288502926778842 -0.008281258304665978 -0.01284808955927551 -0.002428921378116145 -0.01898868775722388 0.05036328218503282 
-0.02245920689565854 -0.003098095446512772 -0.01147692631681066 0.0010622066056927 -0.01583667477914911 0.04633444956673469 
-0.002911136560837818 0.009297845507446934 -0.01044526123226662 0.003919993225400153 -0.009086363795178784 0.00612864646382035 
-0.0162125947179663 -0.0008613065944374865 -0.01316091156607292 -0.005819688142427682 -0.02130639703606676 0.04079527423995685 
-0.02511809398237883 0.004326938181572114 -0.01211173959417776 -0.002181905358473922 -0.01904943145408114 0.03684967701040868 
-0.007574308774747129 0.01731955087187939 -0.01139185040141464 -0.001097533750652439 -0.01377820204110904 0.0005563077406260409 
0.004113779739186265 0.002126948900591138 -0.01182550505156411 -0.01095264544007811 0.006443318813121234 0.01085896722793522 
0.001637072102865883 0.00430627989109258 -0.007254888469376722 -0.008765660909158398 0.003436282349292995 0.006961456312421606 
0.012108117253775 0.01251731857485568 -0.009734088800405268 -0.00901882758219576 0.005071241340021866 -0.01369764197558624 
0.008288956055751348 -0.009648067267497482 0.002923664159299723 -0.01535459429824196 0.007956748048769632 0.0144542120096336 
0.009624368499195964 -0.007841948736313961 0.00674311042953495 -0.01366745428706184 0.001138516961727023 0.01466860868532232 
0.0183953212187083 0.0006515433018253586 -0.001435938779299822 -0.01251800476257024 0.003512096729237938 -0.003251889756538301 
-0.009544280416424787 0.005393576733596851 0.007882256871093561 -0.01241011359643724 -0.007041369735488529 0.01167026620052861 
-0.007988710171593085 0.004692719106219 0.009771091878752334 -0.01218781621769303 -0.01009458122117043 0.01298097876807346 
-0.001030014938264898 0.01146299315630673 0.007476939691621074 -0.01158125938394789 -0.01063144654845686 -0.001337247152279075 
0.00325992729573821 0.0187036874598776 0.005029485609518524 -0.01283002305216227 -0.01285834969029184 -0.007006328180940082 
0.008979288722358911 0.01130291399084477 0.001524150631570709 -0.008659259626785661 -0.01655866827903895 0.001503167318746223 
0.01504918202962064 0.01312735803415632 0.0007624316082040235 -0.006613398894538725 -0.01591722070301981 -0.0136071960968887 
0.0248778255274366 -0.02584963481392013 0.01615292825674551 -0.02036894802800769 0.004093232020076967 0.006807766085204088 
0.02338229375114536 -0.02382663721842497 0.01837460453516907 -0.02013291085057554 -0.002100970772301194 0.01515381858498239 
0.0312278013924223 -0.01240031271639236 0.009457670158201474 -0.01518989261519496 0.002844574192449267 -0.01440020433405026 
0.006058544684967792 -0.02572127452810467 0.02281556289244508 -0.004909678024163976 -0.01356844431876257 0.0226584248799185 
-0.006383784367579751 -0.0188939902347767 0.02108152131529717 -0.001316379994737294 -0.01233519459712186 0.0294561130429003 
0.008210606259649053 -0.004710537136281607 0.01381931929495367 0.007577431617470887 0.002216522537496994 -0.02104198800712717 
0.0007718949908465338 -0.02034131147661452 -0.005686005896709087 0.006213563743889479 -0.01056390443205692 0.03549437220357261 
-0.02011645140822991 -0.02043130349494566 -0.00510285925792844 0.01151783101449184 -0.00170892583647677 0.04259134414615832 
0.001850507621114489 -0.001478695179812426 -0.00371850115570476 0.02018743233475943 0.02443693144969945 -0.03300895053517589 
-0.001202784480687933 -0.02493238623000684 -0.005283636947658998 0.007253798251414414 -0.009463179870136987 0.02984546777687152 
-0.02008224916274161 -0.02441450890072944 -0.002178392812664252 0.01294971920879541 -0.003633818215067261 0.03369779618933516 
0.00113719800437729 -0.003856460246284997 -0.002298183381872968 0.02035037898292229 0.02010838224318395 -0.03677895447138468 
-0.0001391085278883453 -0.04230392434862085 0.00518588136879571 0.002963136686820069 0.006695926177744875 0.02313335312106434 
-0.01038475114717955 -0.0374905030947361 0.009867328674396032 0.007275776239364925 0.002465372422309113 0.02850881807279565 
0.001796177259980169 -0.01834639492533597 0.0002310310398957276 0.01119589807096688 0.01530622332179844 -0.01432087965802776 
0.02212447000481041 -0.02936451391132023 0.008581522157414064 -0.01129327672342189 0.007533048205303689 0.006156412053091219 
0.01797674163537134 -0.0335048579892154 0.01417142558920575 -0.01022537201825952 -0.0004265370846234208 0.01777685261238686 
0.02784012763835565 -0.01638689171375532 0.002473087603780562 -0.005273851996285709 0.005383121803620955 -0.01261381285023204 
-0.008569514952243519 0.01687604684489508 0.01094484817203754 -0.005982472243136907 -0.01797535725269381 0.001327157611452981 
-0.007349601325816896 0.006940251581164552 0.0154213467100854 -0.004354111490281737 -0.02127662145514054 0.009626118805333306 
-0.001979134580888493 0.008261794064887187 0.01311774389949622 -0.001544320551766779 -0.02097654416961477 0.001023571133525577 
0.02069656729599073 0.00196370998097924 0.007219180795521407 -0.01301177690958988 -0.01420761180171132 -0.006231568868758583 
0.02471296189367671 -0.004631164717296406 0.002452158032355444 -0.008291519962292963 -0.01547630914966726 0.001087176310503708 
0.02402779572580056 0.002209788985747848 0.003269005417801134 -0.007386368767995411 -0.01454716611416806 -0.01090493174302674 
0.01944374256325613 -0.01355455972851024 0.01589252057324724 -0.01975612937069083 -0.01302996880856277 0.01674735877805294 
0.01042764923690845 -0.01394322347707209 0.01292648070090403 -0.01692365717424538 -0.01363835617111782 0.0310812711693275 
0.01332059208024519 0.00249995823185054 0.0110844682344103 -0.01333785024951513 -0.006397808724866474 -0.001977145763221442 
-0.00290393095987914 -0.006782396233204316 0.01360146950535608 -0.02958634776317625 -0.01196262226530763 0.03518560938739188 
-0.01438015125961874 0.008684431669615435 0.01086260740331774 -0.02865471693358615 -0.008135721458847448 0.0315093676059074 
-0.0019945510509704 0.02242772874687671 8.194192762703215e-05 -0.02093276998329682 0.00609020930605669 -0.012545790796388 
0.008639782795555558 0.008008468597826699 0.006427949151086953 -0.01890407825673107 0.03581054088693875 -0.03977056185345585 
-0.002482501955519964 0.0253156443530718 0.001160976955952013 -0.01450876241449289 0.04453364157949694 -0.04935437459596192 
0.006676716269361202 0.04063716774179969 -0.007825247987906604 -0.006409423985891918 0.0685848067612337 -0.1023254963047972 
0.009896867828198012 -0.001237283128054335 -0.002677209271006678 -0.02297151750529559 0.03373364761716299 -0.02822978605719108 
-0.006523354769754902 0.01422373659625739 -3.573457849466409e-05 -0.01599140072573701 0.04024780358386107 -0.03868830315208169 
0.0002197418673106018 0.03257878519046727 -0.0102351625653817 -0.01009019752310119 0.06369753759933471 -0.08674411135903487 
0.0002850067890178145 -0.01260747150205765 0.005704228646239832 -0.03067970278684268 -0.006862057841460435 0.03849394111821028 
-0.02008221469938616 -0.006013008880889949 0.008905531460921819 -0.02693724590051731 -0.00608610494824269 0.0440954762725466 
-0.01620530734335202 0.01599199891991241 -0.006606142458663275 -0.01760257511893312 0.009452119119662849 0.004815642929648115 
0.02506434423705409 -0.0187694353094624 0.002996116136032343 -0.01360521604843118 -0.009845322411049915 0.007164157249951458 
0.01487439320807303 -0.02618941023154539 0.00749608259114721 -0.01286495000427304 -0.01185307373870269 0.02226073840221045 
0.01680140247487362 -0.01135000984904214 0.004466045502180768 -0.008084508040304614 -0.007350214108841914 -0.002635619450594838 
-0.001562637333644944 0.003076480292566921 0.0090741042262399 -0.007083811454382029 -0.02255243750882981 0.01168723194743224 
-0.0005975887376425186 -0.004559984093350304 0.01126986794074258 -0.003988827217190594 -0.02449050888871914 0.01879350788131774 
0.002449365182844851 -0.00068801199930709 0.01282558921161682 -0.005212377957852118 -0.02440031277257695 0.009639594414387704 
0.01098809008358444 -0.0004640854492050602 -0.002741822351847425 0.003726422513426172 -0.004482854176077265 0.005484349964684975 
0.01590496046551551 2.449315936017249e-05 -0.00810469869873575 0.005775822528948659 -0.004467959630840187 0.004287778908896686 
0.01496060621582026 0.008053771409433228 -0.007703006280606339 0.00580384380474629 -0.002818757841095569 -0.008260767719305378 
-0.01303019802637891 -0.01048046532648948 0.0006865793360210738 -0.001411026088662959 -0.00585721086096696 0.03545932657463425 
-0.01606504220154282 -0.000237273376374078 -0.007005270683447837 0.002529171879905987 -0.002282201445050164 0.02943661365106568 
